{"format": "sls-mlp-policy-v1", "provenance": {"checkpoint": "clone7_bc.zip", "method": "imitation (BC on scripted-cascade demos, SLS-51)", "eval": "full-calm 8/8, full-standard 7/8 clean (numpy env)"}, "obs": {"layout": ["position xyz (m)", "velocity xyz (m/s)", "attitude quat xyzw", "angular velocity xyz (rad/s, body)", "fuel fraction", "position-minus-catch-point xyz (m)"], "scale": [5000.0, 70000.0, 15000.0, 300.0, 300.0, 300.0, 1.0, 1.0, 1.0, 1.0, 0.5, 0.5, 0.5, 1.0, 5000.0, 70000.0, 15000.0]}, "action": {"layout": ["thr_centre", "thr_inner", "lean_x", "lean_z"], "decode": "clip to [-1,1]; throttle<=0 means engine group OFF, (0,1] is direct throttle; lean_* x LEAN_MAX = body-up target components", "policy_period_steps": 10}, "inner_loop_pd": {"k_att": 4.0, "k_rate": 8.0, "lean_max_rad": 0.35, "max_gimbal_rad": 0.262, "law": "e_body = R(q)^-1 [leanX-upX, 0, leanZ-upZ]; gp = clip(-k_att*e_body_z + k_rate*wx) * max_gimbal; gy = clip(+k_att*e_body_x + k_rate*wz) * max_gimbal; runs every physics substep (250 Hz)"}, "mlp": {"layers": [{"w": [[0.4814152121543884, 0.6497849225997925, 8.740958213806152, -0.11707156896591187, 0.5540981888771057, 2.3095996379852295, 0.22336651384830475, 0.006884707137942314, 0.07232051342725754, -0.024258356541395187, 0.2579968571662903, -0.43962201476097107, 0.2634395360946655, 0.036557476967573166, 0.52693772315979, 0.6126071214675903, 8.764936447143555], [-0.10415256023406982, 1.0838665962219238, -1.3855401277542114, 0.0065887789241969585, -0.7182855010032654, 0.047096725553274155, 0.07785607129335403, -0.12588971853256226, 0.3610989451408386, -0.10087334364652634, 0.22863809764385223, -0.03426091745495796, 0.26863884925842285, 0.25359728932380676, -0.17005878686904907, 1.2119009494781494, -1.311867117881775], [-0.28803983330726624, 1.0075567960739136, -0.3309461772441864, -1.3474299907684326, 0.7203106880187988, -0.5697978734970093, 0.3359414041042328, 0.17238864302635193, 0.3707279860973358, -0.05837775021791458, 0.18262933194637299, 0.2533218264579773, -0.20339320600032806, 0.11410815268754959, -0.3436896502971649, 1.0081266164779663, -0.13708171248435974], [0.09366250038146973, 2.2954518795013428, -0.6974717378616333, -0.7697293758392334, -0.20202422142028809, -0.05275317281484604, 0.3232731223106384, 0.031415242701768875, -0.06276313960552216, -0.14103059470653534, 0.272281676530838, 0.10332589596509933, -0.19033366441726685, 0.01974623277783394, -0.04983678087592125, 2.3806841373443604, -0.5044097304344177], [-0.23199057579040527, 1.7029248476028442, 0.533929169178009, 0.4232464134693146, 0.886105477809906, -0.17968574166297913, -0.1316334307193756, 0.22234861552715302, 0.14656062424182892, -0.04450047016143799, -0.015961911529302597, -0.3174455761909485, 0.025725483894348145, 0.09163475036621094, -0.13324899971485138, 2.1584832668304443, 0.5595139265060425], [-0.4655560851097107, -2.4357991218566895, -1.9406455755233765, 0.6252938508987427, -0.46366801857948303, -1.0149388313293457, -0.06219128891825676, -0.07126791030168533, -0.18107104301452637, -0.04406844079494476, -0.23535913228988647, 0.30168333649635315, 0.30400708317756653, 0.03227080777287483, -0.5715025067329407, -3.208359956741333, -2.0239450931549072], [0.03591391444206238, -1.453013300895691, 0.6847622990608215, 1.039454460144043, 0.06914549320936203, 1.0114483833312988, -0.219065859913826, -0.06146236136555672, 0.22326606512069702, 0.10073580592870712, 0.008252114057540894, 0.1972924768924713, 0.08926520496606827, -0.048869770020246506, 0.028957204893231392, -1.4769678115844727, 0.5352925062179565], [1.5898884534835815, 1.7729123830795288, 1.2111496925354004, 1.050346851348877, -0.7239417433738708, -2.499152183532715, 0.23486776649951935, -0.08586480468511581, -0.20729556679725647, 0.11185897141695023, -0.5288637280464172, -0.12019895762205124, -0.6295263767242432, 0.11615882813930511, 1.901534914970398, 2.648689031600952, 1.1624057292938232], [-0.9591817855834961, 0.3372447192668915, -0.28147265315055847, -1.520272970199585, 0.03862452134490013, -0.24063000082969666, 0.31263288855552673, -0.06880193203687668, 0.002453314373269677, -0.051499225199222565, -0.09546207636594772, 0.09968076646327972, 0.15849849581718445, 0.18477261066436768, -1.0827877521514893, 0.35450267791748047, -0.2888721823692322], [0.8934072852134705, 1.0635709762573242, 0.07245016098022461, 0.3080725073814392, 0.16510941088199615, 0.19800443947315216, 0.09701915830373764, -0.020390089601278305, 0.15284284949302673, 0.06984896212816238, -0.12069045752286911, 0.25605863332748413, 0.03854316473007202, -0.010157167911529541, 0.87474125623703, 1.3438106775283813, 0.18275977671146393], [-1.5408964157104492, -3.0411527156829834, -0.46209725737571716, 0.7950494885444641, 0.00022466358495876193, 1.7687519788742065, -0.04934682324528694, 0.04330961033701897, 0.6386160850524902, -0.04304938390851021, 0.3112170100212097, -0.2647901773452759, 0.23375582695007324, 0.08857717365026474, -1.6123578548431396, -3.581110954284668, -0.5679028034210205], [0.10370795428752899, -0.9782808423042297, 0.37498703598976135, -0.9055642485618591, 0.06190166249871254, 0.0038591630291193724, 0.08386410772800446, 0.048421960324048996, -0.27357736229896545, -0.14208447933197021, -0.06576289981603622, -0.29749172925949097, -0.055058564990758896, 0.2574625313282013, 0.06255271285772324, -0.8881387114524841, 0.3476219177246094], [1.1049580574035645, -0.4751034677028656, 3.2501511573791504, -0.1340201497077942, 0.8719160556793213, 1.9286912679672241, 0.18149513006210327, -0.48913291096687317, -0.6664682030677795, 0.14803650975227356, -0.1751786470413208, 0.5696551203727722, -0.08824218064546585, -0.231729194521904, 0.8939923048019409, -0.44549262523651123, 3.348052740097046], [-5.590454578399658, 0.12441025674343109, -0.29021888971328735, -0.6558546423912048, -0.1716276854276657, 0.8748178482055664, -0.13895352184772491, 0.01980813965201378, 0.19146868586540222, -0.08894185721874237, -0.14875872433185577, 0.102804996073246, -0.2440706193447113, 0.10644015669822693, -6.7029523849487305, 0.28794464468955994, -0.23617129027843475], [-0.3308822810649872, -2.2415385246276855, 0.4052811563014984, -1.0058393478393555, 0.2623230218887329, -1.2484595775604248, 0.19354946911334991, -0.1873878389596939, -0.14400529861450195, 0.140114426612854, -0.1596226543188095, 0.5474688410758972, -0.014524688944220543, 0.16593313217163086, -0.5435565710067749, -2.3711624145507812, 0.5124581456184387], [0.2314404547214508, -1.1244328022003174, -0.3453386425971985, -1.2203723192214966, 0.030677352100610733, -1.2892082929611206, -0.3092446029186249, -0.028796562924981117, -0.1801113337278366, -0.09268464893102646, -0.1835201531648636, 0.6767045855522156, 0.0174369178712368, 0.10712558031082153, 0.44667840003967285, -1.0952736139297485, -0.1938897967338562], [0.8990256786346436, 0.06392346322536469, 0.0685226172208786, 1.7183846235275269, 0.04226463660597801, 0.9305089712142944, -0.6930187940597534, -0.0923529863357544, 0.2539941668510437, 0.19076156616210938, -0.3080191910266876, 0.668380081653595, 0.7093883752822876, -0.09746456891298294, 0.9400101900100708, -0.1473001092672348, 0.1892707645893097], [-0.1727600246667862, -3.568147659301758, -0.5000722408294678, 0.5967304706573486, 0.05762209743261337, -0.6054829955101013, -0.015114829875528812, -0.014724074862897396, 0.14856934547424316, 0.0025622297544032335, 0.16805937886238098, 0.059939756989479065, 0.13951727747917175, 0.07614739239215851, -0.16938500106334686, -4.179757595062256, -0.3835263252258301], [-0.8101694583892822, 3.849193811416626, -0.14712803065776825, 0.5911294221878052, -0.47936972975730896, 1.1309802532196045, 0.28799623250961304, -0.016265349462628365, -0.4721260070800781, 0.03412914276123047, 0.0840056836605072, 0.9565342664718628, -0.07301062345504761, 0.007826858200132847, -0.6690763831138611, 4.43563985824585, -0.04001891613006592], [0.8197070956230164, 0.949415922164917, 0.037471868097782135, 1.0700182914733887, -0.4596779942512512, 0.022034719586372375, -0.021607212722301483, 0.00909105222672224, 0.2295568287372589, -0.20836646854877472, 0.16604334115982056, -0.2863624393939972, 0.15911124646663666, 0.08610125631093979, 0.9789078235626221, 0.9687079787254333, -0.05171527341008186], [-0.0979347825050354, -2.4202609062194824, 0.21706624329090118, -0.7682431936264038, 0.1816176325082779, 0.5865614414215088, -0.09529679268598557, 0.009972852654755116, -0.1348462849855423, 0.14787842333316803, -0.2629603445529938, 0.10628960281610489, -0.5646632313728333, 0.06476721912622452, -0.164083331823349, -2.6193692684173584, 0.24417264759540558], [-0.3944254517555237, 1.7986935377120972, -1.7618416547775269, -0.23813891410827637, -0.34750378131866455, -0.15732650458812714, 0.1328257918357849, 0.030522406101226807, 0.1184496283531189, -0.2242116928100586, 0.38689756393432617, 0.33309853076934814, -0.013851896859705448, 0.11965449154376984, -0.19592463970184326, 1.8436198234558105, -1.528028964996338], [-0.14971570670604706, 0.15405353903770447, -0.5278586149215698, -0.2279243916273117, 0.5325391292572021, -1.5305119752883911, 0.1825120598077774, 0.1165132075548172, 0.13051138818264008, -0.09377498924732208, 0.6272173523902893, -0.2647861838340759, 0.1747569888830185, 0.21973270177841187, -0.13847047090530396, 0.3248058259487152, -0.519102156162262], [-0.6032232046127319, 3.560593605041504, 4.431278228759766, 0.6755269765853882, -0.30528706312179565, -0.28651905059814453, -0.30052828788757324, -0.004347531124949455, 0.24668343365192413, 0.0981905609369278, -0.0048033371567726135, 0.0035229006316512823, 0.15829098224639893, -0.1798657327890396, -0.7705067992210388, 4.5476508140563965, 4.29915189743042], [-0.05503030866384506, 1.0551400184631348, 0.0013051717542111874, -0.45761385560035706, -0.5102372169494629, 1.0137995481491089, 0.20966903865337372, 0.051731694489717484, -0.12886160612106323, -0.13667330145835876, 0.04039377719163895, -0.48070135712623596, -0.15882377326488495, 0.24800404906272888, -0.15057560801506042, 0.8907522559165955, 0.12622185051441193], [0.43954527378082275, -0.17331640422344208, -0.08689148724079132, 3.3737714290618896, 0.20751525461673737, -0.5077474117279053, -0.012931493110954762, -0.08970833569765091, 0.08674453943967819, -0.06252159923315048, 0.15885095298290253, 0.29949188232421875, -0.17747105658054352, 0.15447834134101868, 0.2547665238380432, -0.11567957699298859, 0.03998156636953354], [-0.8067014813423157, -0.1625502109527588, -0.19644160568714142, 2.2425696849823, 0.15175551176071167, -0.31086334586143494, -0.6270551681518555, 0.0023931865580379963, 0.12037448585033417, 0.12383832782506943, -0.33441105484962463, -0.3524325489997864, -0.7108262777328491, -0.24054861068725586, -0.5442888736724854, -0.1668187975883484, -0.18495267629623413], [0.5838468670845032, -1.8924440145492554, -0.13635225594043732, 0.5709660053253174, 0.13828806579113007, -0.2753533124923706, -0.07681974768638611, -0.027591388672590256, 0.31923526525497437, 0.03584114462137222, 0.09824488312005997, 0.4780518412590027, 0.046592939645051956, -0.07614011317491531, 0.6549502611160278, -1.8873437643051147, -0.034768298268318176], [-0.06758923083543777, 3.5426599979400635, -0.7008997201919556, 0.8957371711730957, -0.3379240930080414, -0.3966061770915985, 0.3475324213504791, 0.48725172877311707, 0.20598803460597992, 0.002686652122065425, 0.04968327283859253, 0.39172297716140747, 0.08639014512300491, 0.032375022768974304, -0.23624315857887268, 4.404224872589111, -0.7106344103813171], [-0.16862116754055023, 1.9905426502227783, -0.6026854515075684, -0.06701014935970306, -0.152302548289299, 0.2270086258649826, -0.06351809948682785, -0.06688966602087021, 0.4854952394962311, -0.17480656504631042, 0.014323636889457703, 0.03315848112106323, 0.4478937089443207, 0.037622954696416855, -0.29751133918762207, 2.199045181274414, -0.6396283507347107], [-0.6037938594818115, 2.5217444896698, 1.541233777999878, 0.6003219485282898, 0.7733099460601807, -0.9555846452713013, 0.3111954927444458, 0.32891249656677246, 0.745825469493866, 0.0759507417678833, -0.42902204394340515, -0.17918969690799713, 0.02685815840959549, 0.15063992142677307, -0.6850593686103821, 3.4404547214508057, 1.6978983879089355], [-0.2730410397052765, -2.0053582191467285, -0.7708956599235535, -0.8769205212593079, 0.12391434609889984, -0.3436907231807709, 0.2486831396818161, -0.013499071821570396, -0.12036551535129547, 0.10279518365859985, 0.10151687264442444, -0.25026947259902954, -0.08358905464410782, -0.005759843159466982, -0.34322816133499146, -2.412013292312622, -0.7398845553398132], [0.48378708958625793, 1.2346757650375366, -1.3486318588256836, 0.001831506029702723, 0.7872599363327026, -2.1610608100891113, -0.7220160365104675, 0.04876827821135521, 0.36452850699424744, -0.007344215176999569, -0.2358214408159256, -0.2989535629749298, -0.19743812084197998, 0.08062063902616501, 0.8381381034851074, 1.4475340843200684, -1.2273004055023193], [3.213081121444702, -1.427535891532898, 1.6174484491348267, 1.2679979801177979, 0.4344332218170166, -1.3056552410125732, 0.3704327940940857, -0.07411866635084152, -0.8482694625854492, -0.05224301666021347, -0.14689180254936218, 0.09406599402427673, -0.05782848596572876, 0.14656297862529755, 3.474447727203369, -1.3598129749298096, 1.5937706232070923], [-1.09453547000885, 0.19687677919864655, -0.018292175605893135, -1.31601881980896, 0.596215009689331, -0.19175882637500763, 0.22031667828559875, 0.09349316358566284, -0.27956509590148926, -0.09915118664503098, -0.20419101417064667, -0.478023886680603, 0.07923755049705505, 0.04886868596076965, -1.127912998199463, 0.21272063255310059, 0.020679499953985214], [-0.021030321717262268, 0.9160471558570862, -1.477597951889038, 0.4453118145465851, 1.8521472215652466, -0.36201542615890503, -0.08225215971469879, 0.056839749217033386, -0.19708961248397827, 0.05554453283548355, -0.11291863769292831, 0.1032874658703804, -0.16739633679389954, -0.13715903460979462, -0.008361296728253365, 1.5143650770187378, -1.4172810316085815], [0.0489051528275013, -1.5274688005447388, -0.27176782488822937, -0.273682564496994, -0.15229405462741852, 1.441813588142395, 0.1381128877401352, 0.06549037992954254, -0.06335170567035675, 0.0967901423573494, -0.15260446071624756, -0.24657365679740906, 0.27073976397514343, 0.08350612223148346, 0.09021835774183273, -1.5005100965499878, -0.3310324549674988], [1.2212247848510742, -0.11108892410993576, 0.14815354347229004, 1.1738282442092896, 1.4880292415618896, 0.7673614621162415, -0.04228350147604942, 0.08496912568807602, 0.14028413593769073, -0.04881606623530388, 0.03222144395112991, 0.005876098293811083, -0.3239857852458954, 0.11545033007860184, 1.3438974618911743, -0.07819274812936783, 0.16850519180297852], [0.4740419089794159, -0.02821188233792782, 1.051979899406433, 0.6901249885559082, -0.5721635222434998, 0.14557476341724396, -0.4449540674686432, -0.1585199534893036, 0.5920282006263733, -0.05397412180900574, 0.05114278197288513, -0.08497790992259979, -0.34085190296173096, 0.19753308594226837, 0.6306434869766235, -0.08916150033473969, 1.1475178003311157], [0.6973681449890137, 0.5590029358863831, -0.7836723923683167, -0.8694676160812378, -0.36888912320137024, -0.7121061682701111, 0.11736738681793213, -0.05698377266526222, 0.027878692373633385, -0.02729817107319832, -0.08693220466375351, 0.2054811716079712, 0.1317337453365326, 0.10307710617780685, 0.9002998471260071, 0.6012563109397888, -0.6564401984214783], [0.13448868691921234, 0.42531901597976685, -0.517261266708374, -1.1510776281356812, 0.4556262791156769, -0.9187034368515015, 0.336887925863266, -0.043231841176748276, -0.04698210209608078, 0.021003317087888718, -0.23016555607318878, 0.5298887491226196, 0.2843245565891266, -0.027387499809265137, -0.006710031535476446, 0.4996466636657715, -0.5467668175697327], [0.002133023226633668, -0.4171159863471985, 0.17536917328834534, -0.686040461063385, -0.1614760160446167, 0.7925745248794556, -0.37081587314605713, -0.03244100138545036, 0.4074043333530426, 0.0501859113574028, -0.33558616042137146, 0.5088152289390564, 0.18338599801063538, 0.0028931063134223223, -0.13020935654640198, -0.21158847212791443, 0.30060455203056335], [-1.8399109840393066, 0.21689444780349731, -0.26653212308883667, -0.8603114485740662, 0.5548827052116394, -1.4442590475082397, 0.14660635590553284, -0.04209032654762268, -0.32181984186172485, -0.057047780603170395, 0.03806225582957268, -0.1455327570438385, 0.06028338521718979, 0.0870116725564003, -2.1509642601013184, 0.2773626446723938, -0.4014175534248352], [0.8391179442405701, -0.026190388947725296, 15.35723876953125, -0.9848608374595642, 0.7873984575271606, 0.9610640406608582, -0.21404124796390533, -0.06092546880245209, 0.05891622602939606, -0.017500126734375954, 0.21169310808181763, -0.0065888394601643085, -0.440992146730423, 0.09098821878433228, 0.8745700716972351, -0.0185612253844738, 15.454900741577148], [-0.5827822089195251, -0.5199711918830872, -2.317967414855957, 3.8473541736602783, 0.14399492740631104, -0.3830952048301697, -0.1639242321252823, -0.09518834203481674, -0.28166499733924866, -0.10670293867588043, 0.4021914303302765, 0.31109818816185, 0.19745661318302155, 0.22183534502983093, -0.7738950848579407, -0.5422691702842712, -2.264084815979004], [-1.1998881101608276, -0.27856528759002686, -0.04343055933713913, -1.4281110763549805, 0.7114249467849731, -1.1216470003128052, 0.19987444579601288, 0.049648087471723557, -0.09137516468763351, 0.05157548561692238, -0.20629486441612244, -0.5842292904853821, 0.2937206029891968, -0.16342774033546448, -1.201356053352356, -0.28278785943984985, -0.08114496618509293], [1.127449631690979, -0.39716872572898865, 0.638552725315094, 1.489263892173767, 1.5922342538833618, 0.6175950169563293, 0.05102306231856346, 0.014384597539901733, -0.03672735393047333, -0.08316467702388763, 0.16371740400791168, -0.7457569241523743, 0.11064186692237854, 0.11285138875246048, 1.1245766878128052, -0.5243827104568481, 0.556593120098114], [-0.7605374455451965, 0.6456542611122131, -0.2989262044429779, 0.4867824614048004, 1.0587806701660156, -0.9583824276924133, -0.2938045859336853, 0.09038200974464417, -0.4712720513343811, 0.09133993834257126, 0.19256232678890228, 0.27079489827156067, -0.23766660690307617, -0.1823444962501526, -0.7280755639076233, 0.7080547213554382, -0.31778794527053833], [1.3701930046081543, 0.09733810275793076, -5.232821941375732, -0.023774677887558937, 1.5429575443267822, 1.0026617050170898, 0.6894471049308777, 0.07953596115112305, 0.6630198955535889, 0.04750610888004303, -0.015709608793258667, 0.11505396664142609, 0.31725040078163147, -0.16417965292930603, 1.3127341270446777, 0.16685128211975098, -5.488240718841553], [0.2793867588043213, 1.52213716506958, -0.14330002665519714, -0.7756569981575012, 0.2372824251651764, -0.5755364298820496, -0.3165758550167084, -0.0019795044790953398, 0.3932572305202484, -0.15762634575366974, -0.22637547552585602, -0.30197814106941223, 0.3359850347042084, 0.26774394512176514, 0.21236646175384521, 1.5486085414886475, -0.12340179085731506], [1.2302018404006958, 3.951735258102417, -0.44886040687561035, -0.38450151681900024, 0.07024554163217545, -1.163352370262146, -0.393716037273407, -0.11574181914329529, 0.610088050365448, 0.007719488814473152, 0.12560543417930603, -0.3480547368526459, -0.017233101651072502, 0.1081339418888092, 1.5056376457214355, 5.599671840667725, -0.37591537833213806], [0.1392010599374771, -1.4166605472564697, -2.71347713470459, -0.8455439805984497, -1.360676884651184, -0.8235028982162476, -0.08702155202627182, -0.17482353746891022, 0.19988350570201874, -0.024174120277166367, -0.0784047544002533, -0.17217381298542023, 0.42265641689300537, 0.035438187420368195, 0.40345481038093567, -1.7452504634857178, -2.6162116527557373], [0.3971598148345947, 1.7429382801055908, 0.7579883933067322, -0.67500901222229, -1.247786521911621, 0.5151773691177368, 0.15898124873638153, -0.21331936120986938, 0.09494531154632568, -0.0359695628285408, 0.051566265523433685, -0.09336341917514801, 0.20726482570171356, 0.1444883644580841, 0.38381972908973694, 1.9725807905197144, 0.7917150855064392], [0.5658572912216187, 1.7599170207977295, -1.624543309211731, -0.587771475315094, 0.5501608848571777, -0.5898507237434387, 0.2587539553642273, -0.01391802541911602, -0.2151547372341156, 0.06675306707620621, 0.31517839431762695, -0.16583070158958435, -0.1835201382637024, -0.10449403524398804, 0.5822979211807251, 2.250514030456543, -1.5772111415863037], [0.20217056572437286, 0.3141181468963623, -4.387991428375244, 0.9163150191307068, 0.8011614680290222, -0.42718052864074707, -0.24547559022903442, -0.08601896464824677, 0.2153015285730362, 0.009752403013408184, -0.21033519506454468, 0.45370543003082275, -0.07878297567367554, -0.0756763368844986, 0.23884351551532745, 0.4680015742778778, -4.332254886627197], [1.0547561645507812, -0.33152884244918823, 2.3711397647857666, 0.07307812571525574, -1.9006280899047852, -1.5730230808258057, -0.24149322509765625, 0.09407386183738708, 0.5797077417373657, -0.05413031205534935, -0.03682400658726692, 0.10335074365139008, -0.10280121862888336, 0.10692165046930313, 1.2193111181259155, -0.658898651599884, 2.408391237258911], [1.2207837104797363, 0.30117669701576233, 4.318599224090576, -1.2548705339431763, -0.8118038177490234, -2.7560818195343018, 0.27161815762519836, 0.11555297672748566, -0.8347828388214111, 0.06852886825799942, 0.16688326001167297, 0.33140721917152405, -0.6771300435066223, -0.11934730410575867, 1.4829150438308716, 0.18735699355602264, 4.325377941131592], [-0.04460078477859497, 0.41016289591789246, -1.2418286800384521, -0.18966418504714966, 0.015506266616284847, -0.5631190538406372, -0.22167006134986877, 0.010346898809075356, -0.705767035484314, 0.027202174067497253, -0.028690677136182785, -0.15615390241146088, -0.3672443628311157, -0.2377995252609253, -0.203727588057518, 0.1231544017791748, -1.156630039215088], [-0.2975955903530121, 1.773012399673462, -0.9121513366699219, 2.1618194580078125, 0.2532264292240143, 0.589827299118042, 0.2212762087583542, 0.01643950305879116, 0.46274885535240173, -0.018491551280021667, 0.11005204916000366, -0.5902121067047119, -0.19482578337192535, -0.003267574356868863, -0.3545089364051819, 1.811422348022461, -0.6453186869621277], [0.05879444628953934, -1.8472970724105835, -0.13339203596115112, 0.3105878531932831, 0.10672158002853394, -0.025185419246554375, -0.4885886013507843, -0.004497512709349394, -0.11231084167957306, 0.020530544221401215, -0.2372291386127472, 0.3082934617996216, -0.04477261006832123, 0.05938635766506195, 0.005713990423828363, -1.8737335205078125, 0.08894385397434235], [0.26128774881362915, -4.098210334777832, 0.6715948581695557, 0.09587892144918442, -0.06101271137595177, 0.35076865553855896, -0.5806035995483398, 0.2522507905960083, 0.21654658019542694, 0.010928570292890072, 0.09368352591991425, 0.2780207693576813, 0.17192110419273376, -0.009783533401787281, 0.08211757242679596, -4.879754543304443, 0.4977363348007202], [0.14828944206237793, -1.902409315109253, -2.1939618587493896, -0.025021648034453392, -0.2104412019252777, -1.1668583154678345, -0.44913536310195923, 0.10616717487573624, -0.40445810556411743, -0.01380847580730915, -0.0037445365451276302, -0.2830127775669098, -0.5029439330101013, 0.006653821561485529, 0.2872842848300934, -2.2760186195373535, -2.1781065464019775], [-0.3598068356513977, -0.29008007049560547, -0.08459318429231644, -0.3183029294013977, 0.04686300829052925, -0.42050743103027344, 0.256944864988327, -0.048281967639923096, 0.23651960492134094, 0.21521815657615662, 0.15591464936733246, -0.9410815834999084, -0.08810249716043472, 0.15222617983818054, -0.4866707921028137, -0.15099595487117767, -0.16968779265880585], [0.09611748903989792, 0.4435370862483978, 0.013447131961584091, 0.4455065131187439, -0.12226181477308273, 1.6352983713150024, -0.2863942086696625, -0.026612447574734688, 0.10905026644468307, -0.00038369602407328784, -0.1251857876777649, 0.06204374507069588, 0.25191205739974976, -0.060873448848724365, 0.27740082144737244, 0.31506016850471497, 0.1352301836013794], [2.241349697113037, -0.6712544560432434, 0.29637280106544495, 0.13339939713478088, -0.29999640583992004, 0.9030051827430725, 0.1193137988448143, -0.038755808025598526, -0.1558668613433838, -0.0465802326798439, -0.1602645069360733, -0.27528682351112366, 0.1809583455324173, 0.10914468765258789, 2.7210912704467773, -0.7181881070137024, 0.37032124400138855], [0.20665407180786133, 3.502296209335327, 1.6690481901168823, -0.331681489944458, 0.2959648072719574, -0.7232165932655334, -0.3290676176548004, 0.017223749309778214, 0.12069228291511536, 0.07102027535438538, 0.03397044911980629, 0.10972561687231064, 0.09807468205690384, -0.03625797852873802, 0.36891502141952515, 4.744629859924316, 1.8853107690811157], [-0.141275554895401, -3.1594343185424805, -3.5695981979370117, -0.49170392751693726, 0.12338980287313461, 0.40748146176338196, -0.3647758662700653, -0.2872433066368103, 0.3360639214515686, 0.0100630521774292, 0.042400360107421875, 0.3663560152053833, -0.0424467958509922, -0.07947560399770737, 0.0024625826627016068, -3.758674383163452, -3.6494007110595703], [-1.1064987182617188, -2.059354543685913, -1.7386835813522339, 0.9492836594581604, -0.8634538650512695, -1.2607464790344238, 0.21102073788642883, -0.10525678098201752, 0.3718489408493042, 0.004458724521100521, -0.2140093445777893, -0.03057325817644596, -0.2533093988895416, 0.012582514435052872, -1.4721181392669678, -2.5147058963775635, -1.5471622943878174], [-0.21990488469600677, -0.8902720808982849, 1.454327940940857, 1.4876682758331299, -0.07899166643619537, 1.0547714233398438, -0.07326409965753555, -0.02011091262102127, -0.0003841100260615349, -0.09494933485984802, -0.08964930474758148, -0.1630460023880005, 0.13385987281799316, 0.20361825823783875, -0.2685645818710327, -0.9121201038360596, 1.5933579206466675], [-0.36434897780418396, -0.15200194716453552, 0.052823975682258606, -1.4076478481292725, 0.3472486734390259, -0.4156573712825775, -0.09715893864631653, 0.013737162575125694, -0.2559494972229004, -0.14316487312316895, -0.4067906439304352, -0.6712108850479126, -0.43698298931121826, 0.3744695484638214, -0.4415035843849182, -0.08659868687391281, -0.18308375775814056], [-1.0625741481781006, 1.1902341842651367, 0.06663435697555542, 0.6572059988975525, 0.7210726737976074, 1.4761987924575806, 0.019898060709238052, -0.2150883972644806, -0.060872528702020645, 0.05804063379764557, 0.16990937292575836, 0.08510803431272507, -0.2660551369190216, -0.18250663578510284, -1.1129989624023438, 1.0519806146621704, 0.01763130910694599], [0.08824985474348068, -0.5501217246055603, -0.09023430943489075, 0.2037334144115448, 0.22403688728809357, -1.1133379936218262, 0.07289519160985947, 0.07152314484119415, 0.5652102828025818, 0.1797710806131363, 0.25274306535720825, 0.13894852995872498, 0.3138495981693268, -0.2182200402021408, 0.15489715337753296, -0.4732041656970978, -0.02150718867778778], [-0.2168368697166443, 2.7053935527801514, 0.644667387008667, -0.10365118086338043, -0.19915224611759186, 0.24395796656608582, -0.053142957389354706, 0.004654082469642162, 0.15882454812526703, -0.3110450506210327, -0.26030826568603516, -0.08958868682384491, -0.0901256576180458, 0.16742917895317078, -0.2106718271970749, 2.9319674968719482, 0.4991263747215271], [-0.8900840878486633, -1.5744982957839966, -0.5219553709030151, 0.17331068217754364, -0.03364944830536842, -2.191279649734497, 0.12578004598617554, -0.0030259531922638416, 0.7232025265693665, -0.003781539388000965, -0.16449497640132904, -0.20822753012180328, 0.3335290253162384, 0.0697728767991066, -1.05048406124115, -1.56402587890625, -0.4600793421268463], [-8.233366012573242, -2.316565752029419, 0.57651287317276, 0.6024817824363708, 2.169724225997925, -0.642910361289978, 0.5263513326644897, -0.2001769244670868, -0.39755702018737793, -0.09004949033260345, 0.12809233367443085, -0.5741289854049683, -0.17459037899971008, 0.12210147082805634, -10.176481246948242, -3.0548393726348877, 0.4634188711643219], [0.23587800562381744, -2.9581010341644287, 0.44252148270606995, -0.21211165189743042, -0.03263607993721962, -0.4055340886116028, -0.6180688738822937, 0.019158173352479935, -0.3540512025356293, 0.0757027193903923, -0.10800193250179291, -0.23207905888557434, -0.05441616475582123, -0.04350962117314339, 0.14677119255065918, -3.4375500679016113, 0.6266111731529236], [0.5251731872558594, 0.6472165584564209, 0.29799216985702515, 3.8260464668273926, -0.27171793580055237, -0.06537964195013046, 0.06356486678123474, 0.0653112456202507, -0.8033285140991211, 0.020114298909902573, 0.09546631574630737, -0.7966010570526123, -0.720546305179596, 0.17327448725700378, 0.6274932026863098, 0.40651455521583557, 0.16056595742702484], [-0.3524039387702942, -4.208240985870361, -0.4612177312374115, 0.3189202547073364, -0.3110843896865845, 1.0006345510482788, 0.42761141061782837, 0.40600958466529846, -0.0927724614739418, 0.13461235165596008, 0.022958971560001373, -0.048368360847234726, -0.11137755215167999, -0.31130313873291016, -0.5767612457275391, -5.704136848449707, -0.6074687838554382], [-0.7029100060462952, 1.9628393650054932, 0.8962440490722656, -0.004260608926415443, -0.13302156329154968, -0.699077308177948, -0.08058074861764908, 0.045307330787181854, -0.01464733388274908, 0.1557188779115677, 0.5838252902030945, -0.4607451260089874, -0.47386449575424194, 0.015401406213641167, -0.7926201224327087, 2.6042442321777344, 0.8255311846733093], [2.931349515914917, -0.09164384007453918, 0.24563616514205933, 0.21955911815166473, -0.17776496708393097, 0.2882060408592224, -0.052147164940834045, -0.00525498203933239, 0.3058371841907501, -0.0010117286583408713, -0.07120878249406815, 0.11997993290424347, 0.31810715794563293, 0.03961930423974991, 3.3278555870056152, 0.06473895162343979, 0.1474079191684723], [2.153780937194824, 0.5404341220855713, -3.5500833988189697, -0.2864783704280853, 0.2951471209526062, 0.7116732597351074, 0.23806917667388916, 0.026181809604167938, 0.13239754736423492, 0.06854791194200516, 0.18850257992744446, -1.1158332824707031, 0.21927759051322937, -0.07794412225484848, 2.4608960151672363, 0.6901018619537354, -3.3089544773101807], [0.7719900608062744, -0.47059571743011475, 0.11949733644723892, 1.2920761108398438, 0.2009105682373047, -0.9388719201087952, 0.42019522190093994, 0.037528008222579956, 0.03361847996711731, -0.10252996534109116, -0.14658315479755402, 0.4163857102394104, 0.17215228080749512, 0.11678706854581833, 0.8818120956420898, -0.5715091824531555, 0.058144018054008484], [-0.3233959376811981, -4.932342529296875, 1.8293007612228394, 0.710887610912323, -0.22549939155578613, -0.5989421606063843, 0.1441158950328827, -0.05921536684036255, -0.012587673962116241, -0.0011191717348992825, -0.019788406789302826, -0.01090214028954506, 0.012369279749691486, -0.14413662254810333, -0.397372305393219, -6.83331298828125, 1.8001446723937988], [0.5786939859390259, -4.535544395446777, 0.6197733283042908, 0.03540094569325447, -0.22864189743995667, -0.6958414316177368, -0.3722514510154724, -0.12518025934696198, 0.18004243075847626, 0.03894601762294769, 0.2535524070262909, -0.2456662505865097, 0.05290563032031059, -0.15790221095085144, 0.5415009260177612, -5.591188907623291, 0.7234557867050171], [0.10982746630907059, 3.8297441005706787, -0.2392941564321518, 0.034206464886665344, -0.13035663962364197, 0.6205611824989319, -0.20965366065502167, -0.19350169599056244, -0.24484071135520935, -0.03237588331103325, 0.03102637268602848, -0.10874100029468536, 0.006029617041349411, -0.13329686224460602, 0.2526111900806427, 4.396246910095215, -0.23990140855312347], [0.4044730067253113, -0.11175640672445297, -0.57069331407547, 1.009070634841919, -0.3197484612464905, 0.4953848123550415, -0.07281220704317093, -0.0044187516905367374, 0.0313129797577858, -0.10093237459659576, 0.44410625100135803, -0.22542044520378113, 0.21988500654697418, -0.16820745170116425, 0.4648139774799347, -0.16248978674411774, -0.35839658975601196], [0.2656141221523285, -0.7129098773002625, 0.2520887553691864, -0.8561689257621765, -1.1550546884536743, -0.4530380070209503, 0.1806240826845169, -0.0013090557185932994, 0.34168192744255066, -0.06177239120006561, 0.09179547429084778, 0.1915733367204666, 0.08850892633199692, 0.030563443899154663, 0.3422071039676666, -0.9648776054382324, 0.010601942427456379], [-0.7987985610961914, 0.3326517939567566, -0.018003985285758972, -2.0610883235931396, -0.4116225838661194, 0.11249671876430511, 0.04552652686834335, 0.02309706248342991, 0.04611045867204666, -0.08983821421861649, 0.032016653567552567, -0.1327551007270813, 0.1269054114818573, 0.23452132940292358, -1.1443589925765991, 0.3246781527996063, -0.2789474427700043], [-0.08925412595272064, -0.1333249807357788, 0.3420068323612213, -0.5106343626976013, 0.46694132685661316, 0.11159653961658478, -0.2730454206466675, -0.0580645427107811, -0.32078611850738525, -0.05897235870361328, 0.009632553905248642, 0.2908063530921936, 0.038678932934999466, -0.051309939473867416, -0.10565899312496185, -0.16451828181743622, 0.14559762179851532], [-0.4792267978191376, 0.10045682638883591, -1.0149000883102417, -0.006218724884092808, -0.4670999050140381, 1.5677802562713623, 0.05806482583284378, -0.06553776562213898, 0.24121566116809845, 0.05348014831542969, 0.30085065960884094, -0.17780327796936035, 0.20024318993091583, 0.0762225016951561, -0.6807613968849182, -0.003286371473222971, -0.909842848777771], [1.2129318714141846, -3.0728068351745605, 1.2237528562545776, -0.5803360939025879, -0.05817040055990219, 1.1349321603775024, 0.3135710656642914, 0.04987955465912819, 0.2336050122976303, 0.12533874809741974, 0.31842559576034546, 0.374150812625885, -0.27641111612319946, -0.19615378975868225, 1.2836625576019287, -3.613727331161499, 1.1283361911773682], [0.4276055693626404, 3.1964566707611084, -0.697186291217804, 1.2349553108215332, -0.16045314073562622, -0.8364540338516235, 0.1106448546051979, 0.12753158807754517, -0.5366545915603638, -0.14867959916591644, 0.21556133031845093, -0.01669291779398918, 0.13048426806926727, 0.04865306243300438, 0.33990469574928284, 3.216355323791504, -0.4757496416568756], [1.1169683933258057, -0.8514381051063538, 0.4447668492794037, 1.8080517053604126, 0.11497870087623596, 0.2430831342935562, 0.12888981401920319, 0.018516995012760162, -0.021674424409866333, 0.07364222407341003, -0.03839771822094917, 0.035107921808958054, -0.30695393681526184, -0.15793995559215546, 1.008544921875, -0.8494568467140198, 0.4698360860347748], [-1.7510461807250977, -0.512262761592865, 0.24175091087818146, -1.320444107055664, -0.6079220771789551, 0.10398892313241959, 0.14443328976631165, 0.0117801483720541, -0.1503879725933075, 0.07614077627658844, 0.12832637131214142, -0.09351307898759842, -0.037556134164333344, -0.12299995124340057, -1.698167085647583, -0.5044867992401123, 0.27373984456062317], [-0.9201765656471252, -0.7359462976455688, 1.4348191022872925, 0.21475866436958313, -0.151078462600708, 1.4541099071502686, -0.08636125922203064, 0.019246714189648628, -0.17298850417137146, 0.06359276920557022, 0.3621926009654999, 0.08549252897500992, -0.5860614776611328, -0.10275663435459137, -1.0118952989578247, -0.4890926778316498, 1.389853835105896], [-0.7063917517662048, -0.0002838814107235521, 0.07678788900375366, -0.5571731925010681, 0.05384800583124161, 0.06946264952421188, -0.3261829912662506, -0.24919576942920685, -0.07350964099168777, -0.056121576577425, -0.12322590500116348, 1.8672888278961182, -0.1083311215043068, 0.10015561431646347, -0.7376620769500732, 0.16348040103912354, 0.0969071313738823], [-0.1236591711640358, -0.7803338766098022, 0.5660184025764465, -0.8018642663955688, 0.12206835299730301, 0.3017147481441498, -0.0406055748462677, 0.020580902695655823, -0.1944727748632431, 0.03905903548002243, -0.2506505250930786, -0.09674326330423355, 0.2718265652656555, -0.11558983474969864, -0.026283349841833115, -0.8776865601539612, 0.7450219392776489], [0.1310194879770279, -2.6528358459472656, 0.29459717869758606, -0.16924642026424408, -0.15317921340465546, -0.11429496854543686, 0.06964540481567383, 0.15149518847465515, 0.33497685194015503, 0.05610683932900429, 0.04078543931245804, -0.04781211167573929, 0.1463555097579956, -0.0715474933385849, 0.2394394874572754, -2.8811323642730713, 0.39060696959495544], [0.19253136217594147, 2.6498172283172607, 1.41738760471344, -1.5770618915557861, 0.9274795055389404, 0.7024247646331787, -0.0536949522793293, 0.04593071714043617, 0.2827235758304596, -0.14961203932762146, 0.41864970326423645, 0.21526120603084564, 0.16042295098304749, 0.1160089522600174, 0.3615211248397827, 3.5403265953063965, 1.377882719039917], [0.7632386088371277, -0.5519776344299316, 0.906115710735321, 0.017698984593153, 0.21147297322750092, 0.06481284648180008, -0.6771319508552551, 0.07523982971906662, 0.5841799974441528, 0.09876850247383118, 0.15101194381713867, 0.4838532507419586, 0.5078111886978149, -0.0009376924717798829, 0.6855648159980774, -0.47963058948516846, 0.9199953675270081], [2.934471607208252, 0.746202290058136, 1.5409654378890991, 0.36980223655700684, 1.0624734163284302, 0.38729894161224365, 0.1781609207391739, 0.08594870567321777, 0.02425774373114109, 0.02197803556919098, -0.1147766187787056, -0.27367478609085083, 0.13180683553218842, -0.012888411059975624, 3.606376886367798, 1.0410135984420776, 1.50391685962677], [1.6581623554229736, 3.2495076656341553, -1.1155163049697876, 0.47645634412765503, 0.02037121169269085, 0.15155354142189026, 0.39509424567222595, 0.36459338665008545, 0.12929090857505798, 0.060830745846033096, 0.40675458312034607, 0.3508555293083191, 0.173143669962883, -0.04594450816512108, 1.7954182624816895, 4.515347480773926, -0.8995265364646912], [0.2089565098285675, -2.281724691390991, -0.13899874687194824, 1.3630250692367554, 0.1040813997387886, -0.17156891524791718, 0.16026172041893005, 0.19134831428527832, 0.13012757897377014, 0.06549461930990219, -0.009886120446026325, -0.16736352443695068, 0.1428137570619583, -0.07656015455722809, 0.3404654264450073, -2.417299509048462, -0.020207414403557777], [-5.172743797302246, 0.10106241703033447, 0.6485289931297302, 0.8349397778511047, 0.2595992982387543, -0.4565799832344055, -0.19719141721725464, 0.12377361953258514, -0.078658327460289, 0.03317045420408249, -0.03762661665678024, 0.21900494396686554, -0.17766088247299194, -0.13542942702770233, -6.332719326019287, 0.2832334041595459, 0.8639124631881714], [-0.1852663904428482, -2.489867687225342, 3.0421905517578125, 0.09982050955295563, 0.32601240277290344, 1.6813591718673706, 0.2741181552410126, 0.041456956416368484, 0.26669174432754517, 0.0008809887804090977, 0.16798251867294312, -0.25429922342300415, -0.13120496273040771, 0.04873361811041832, -0.25816985964775085, -2.8515069484710693, 2.7524311542510986], [0.9057347178459167, 0.27754420042037964, -0.13382966816425323, 2.2773683071136475, 0.2505844533443451, -0.7017156481742859, 0.5314890742301941, -0.08889469504356384, 0.015323012135922909, -0.02796299010515213, 0.5182169675827026, 0.37643158435821533, 0.10443104058504105, 0.048196449875831604, 0.9617324471473694, -0.12169427424669266, -0.23463968932628632], [-0.5297595262527466, -0.46326035261154175, 0.389416366815567, -1.1366866827011108, -0.10923492163419724, -0.45482337474823, -0.24765074253082275, 0.15665222704410553, -0.4100151062011719, -0.008627927862107754, -0.19385823607444763, -0.8969995379447937, 0.03234894573688507, -0.21058310568332672, -0.5883208513259888, -0.2592625617980957, 0.27958059310913086], [-0.4034213423728943, -2.052455186843872, 0.9348692893981934, -0.20919187366962433, -0.00021617976017296314, 1.1180280447006226, 0.36906298995018005, 0.13102012872695923, -0.09905373305082321, -0.06723559647798538, 0.2679101228713989, -0.37433409690856934, 0.04398145154118538, 0.271132230758667, -0.36330822110176086, -2.359513521194458, 1.0690929889678955], [-0.5936789512634277, 1.341375470161438, -1.4320789575576782, 1.8218778371810913, -0.585928201675415, -1.9495478868484497, -0.29280444979667664, -0.05866103619337082, 0.173287495970726, -0.02764367125928402, -0.2235572785139084, 0.9462319016456604, -0.1561136245727539, 0.08027360588312149, -0.5505671501159668, 1.636373519897461, -1.6480731964111328], [-0.6673021912574768, -5.549623012542725, 0.6526394486427307, 0.8697105646133423, 0.2554224133491516, -0.48004263639450073, 0.02047651819884777, 0.5044735670089722, -0.1174139752984047, 0.0006426806794479489, -0.431784987449646, 0.1208520233631134, 0.2911013066768646, 0.03385083004832268, -0.733873188495636, -7.640351295471191, 0.8168783783912659], [0.4243980944156647, 1.0292850732803345, 0.3065972328186035, 0.9348254203796387, 0.3433700501918793, 0.10385122150182724, -0.08082827925682068, 0.14017711579799652, 0.29900503158569336, 0.15872831642627716, 0.3936864137649536, 0.1149323508143425, 0.2204514741897583, -0.14965930581092834, 0.7220690846443176, 1.3255586624145508, 0.35411718487739563], [3.4554150104522705, -0.21864934265613556, -0.39939939975738525, 0.9172883629798889, 0.42006826400756836, -0.8491900563240051, 0.3551000654697418, -0.054047178477048874, 0.3019615709781647, -0.015417664311826229, -0.06656002253293991, 0.45610758662223816, 0.28754115104675293, 0.055618248879909515, 3.972372055053711, -0.22833484411239624, -0.2979523837566376], [0.32152944803237915, -2.9259414672851562, -0.9516891241073608, 0.7979016900062561, 0.18738697469234467, -0.8965831398963928, 0.021034376695752144, -0.17513659596443176, -0.29825901985168457, 0.02365213818848133, -0.15043547749519348, -0.06793909519910812, 0.08894024044275284, 0.00014646223280578852, 0.21720770001411438, -3.595867872238159, -0.9200788736343384], [1.6810462474822998, -3.470517635345459, -8.747783660888672, -2.8897314071655273, -0.18827123939990997, 3.590459108352661, 0.5401799082756042, 0.07246282696723938, 0.641944944858551, 0.21403703093528748, 0.19683629274368286, -0.09797454625368118, 0.32530978322029114, -0.37090688943862915, 2.0455009937286377, -4.652915000915527, -8.704585075378418], [-0.6619868278503418, 0.3074992895126343, -0.2927725613117218, -1.0330570936203003, 0.009468896314501762, -0.46886301040649414, 0.04438336566090584, -0.06007571145892143, -0.0031455864664167166, -0.03883853927254677, -0.11931713670492172, -0.2527644634246826, 0.04025672376155853, -0.009086240082979202, -0.7980963587760925, 0.44523778557777405, -0.09567739814519882], [-0.4097197353839874, 2.8435420989990234, -0.1719181090593338, 0.15628975629806519, 0.016777317970991135, -0.3902733623981476, -0.027950461953878403, -0.03967498987913132, -0.44289472699165344, -0.12126865237951279, 0.05180870741605759, 0.17472755908966064, -0.4211324155330658, 0.12390874326229095, -0.337642639875412, 3.000107526779175, -0.17225292325019836], [-0.426373690366745, -0.44024160504341125, 1.8124415874481201, -0.9842722415924072, 0.6156226396560669, 2.374965190887451, 0.14517909288406372, 0.006556016393005848, -0.03922136500477791, 0.015954531729221344, 0.2729004919528961, -0.32392892241477966, -0.021023094654083252, -0.05043740198016167, -0.4151611626148224, -0.4617008864879608, 1.8980889320373535], [2.909536361694336, 0.13224416971206665, -0.12432631850242615, 1.3210792541503906, 0.3197437822818756, -0.9466960430145264, -0.0564410500228405, -0.026471704244613647, 0.2737509310245514, 0.035782232880592346, -0.1682867407798767, 0.07944004237651825, -0.046236950904130936, -0.045808520168066025, 3.4872701168060303, -0.10360970348119736, -0.1818719208240509], [-0.6289778351783752, -0.427794873714447, 0.152375265955925, -0.40120744705200195, 0.11463990807533264, 0.5417847037315369, -0.13689322769641876, 0.20385782420635223, 0.2615186870098114, -0.024452192708849907, 0.1188635379076004, -2.58634877204895, -0.022799763828516006, -0.15733452141284943, -0.7791795134544373, -0.5130720734596252, 0.07270096242427826], [0.8833382725715637, 4.463807582855225, -0.6673336625099182, -0.36520642042160034, -0.341764360666275, 0.41827595233917236, -0.19671398401260376, 0.36935511231422424, 0.0690712109208107, -0.031752727925777435, 0.1038246676325798, 0.3932018578052521, 0.04764583334326744, 0.024646300822496414, 0.9575155973434448, 5.218353271484375, -0.8757771253585815], [-0.1353999227285385, 2.9244582653045654, -1.986283540725708, -0.29852551221847534, -0.0020530486945062876, 0.18644867837429047, -0.4497927129268646, -0.12473052740097046, -0.44884321093559265, 0.06368505954742432, 0.055048730224370956, 0.3441973328590393, 0.05125875771045685, -0.061574049293994904, -0.10292807966470718, 3.0271809101104736, -2.0447099208831787], [-0.08825799822807312, 0.18693317472934723, -0.3445253372192383, -0.25068607926368713, -2.862339735031128, 0.0545291043817997, 0.35064631700515747, 0.15393252670764923, 0.053875792771577835, -0.02620377577841282, 0.06855452060699463, 0.3671709895133972, 0.015789950266480446, 0.0015534806298092008, -0.0537700355052948, 0.13989576697349548, -0.10673905909061432], [0.3842203617095947, -0.8196845054626465, 3.033733367919922, 0.6080639958381653, 0.1724800169467926, 0.08265389502048492, 0.32386842370033264, 0.03310290351510048, 0.2099980115890503, -0.04152572154998779, -0.1179923340678215, -0.14683961868286133, 0.062449030578136444, 0.08641301095485687, 0.5627719163894653, -1.0731645822525024, 2.927807569503784], [0.4667823612689972, -1.2323155403137207, 0.655195951461792, -0.018353093415498734, 2.257995128631592, -0.9473992586135864, -0.280221551656723, 0.021020224317908287, 0.7094236612319946, 0.08760834485292435, -0.240470290184021, -0.2681403160095215, -0.035955168306827545, -0.2070641815662384, 0.6604413986206055, -1.6587897539138794, 0.622105062007904], [-3.1501691341400146, -0.08065036684274673, -0.2050069272518158, -4.179549694061279, -0.04034881293773651, -0.6113171577453613, 0.0953959971666336, -0.025278182700276375, 0.5005220174789429, -0.038793034851551056, 0.196136474609375, -0.25146305561065674, 0.2499174177646637, 0.07571520656347275, -3.6491076946258545, -0.19949086010456085, -0.12541140615940094], [0.1572360396385193, -4.097505569458008, -0.382744163274765, 0.27187126874923706, 0.05916180834174156, 0.18160583078861237, -0.04628615826368332, -0.10338616371154785, -0.06694377213716507, 0.038520194590091705, 0.02341879904270172, -0.06111622601747513, 0.12984490394592285, 0.1362031102180481, 0.3978482186794281, -4.54993200302124, -0.4336506426334381], [0.9159720540046692, 0.5302709937095642, -0.5947136282920837, 0.5925701856613159, 0.1545286625623703, -0.8019739985466003, 0.051094356924295425, -0.31792980432510376, 0.2183750718832016, 0.0608157142996788, -0.03503915295004845, -0.22256386280059814, 0.26104432344436646, -0.10155767947435379, 1.0416573286056519, 0.5916534066200256, -0.7993183135986328], [-5.703854560852051, 0.18890397250652313, 0.10351987928152084, -0.49210724234580994, 0.31540465354919434, 0.45531269907951355, -0.5498576760292053, -0.1506451815366745, 0.6520525217056274, 0.07157455384731293, -0.3675958812236786, -0.0976007729768753, -0.4820833206176758, -0.005911900196224451, -7.406855583190918, 0.2101513296365738, 0.12198154628276825], [-1.5029335021972656, -0.4918177127838135, -0.06400403380393982, -0.33536383509635925, -0.24245436489582062, 0.39374840259552, 0.028822222724556923, -0.003508312627673149, -0.2153557687997818, -0.11428707838058472, -0.0076071759685873985, -0.07400061935186386, 0.035569459199905396, 0.06866724044084549, -1.8452280759811401, -0.562626838684082, -0.024699358269572258], [0.44397374987602234, 1.0438694953918457, 0.22614985704421997, 0.5496946573257446, 1.3840653896331787, -0.14626750349998474, 0.36655089259147644, -0.05280878022313118, -0.5082725286483765, -0.049615535885095596, 0.02009018324315548, 0.20782022178173065, 0.02634184993803501, 0.21783451735973358, 0.4979587495326996, 1.1703667640686035, 0.46815353631973267], [-0.5427656173706055, -0.3652873933315277, 0.42829880118370056, -1.8289600610733032, 0.37001004815101624, 0.19353742897510529, 0.008882860653102398, -0.07777691632509232, -0.16587993502616882, -0.018148722127079964, -0.22308146953582764, 0.05379920452833176, 0.25533369183540344, 0.04269058257341385, -0.47910892963409424, -0.29213497042655945, 0.4573422968387604], [1.9287135601043701, 1.5505168437957764, 0.4990367591381073, 0.8154756426811218, -1.0122088193893433, 1.2499326467514038, 0.13644753396511078, -0.8776023983955383, -0.12292474508285522, -0.05790368840098381, 0.21044881641864777, -0.17092913389205933, -0.20385318994522095, 0.13560529053211212, 2.189366102218628, 2.0116167068481445, 0.5957984328269958], [-0.5161406993865967, -2.5079901218414307, 2.6550421714782715, 0.87320476770401, 0.4761008024215698, 2.11430287361145, -0.003041121643036604, -0.09253423660993576, 0.41453203558921814, -0.004579853266477585, 0.30236348509788513, 1.1839648485183716, -0.18590344488620758, -0.0332132913172245, -0.4649668037891388, -3.134528636932373, 2.5896763801574707], [1.0314552783966064, -2.586045503616333, -0.07602386921644211, 0.7127806544303894, 0.24830178916454315, 0.7876965403556824, 0.14618639647960663, 0.01715034991502762, 0.09774076193571091, 0.059227053076028824, -0.08527617901563644, -0.08995763212442398, 0.05712007358670235, -0.025355329737067223, 1.0399543046951294, -3.0121331214904785, -0.2923181653022766], [0.22225628793239594, 2.858626365661621, 0.8036412596702576, 0.7522405385971069, 0.1476619392633438, -0.36505308747291565, -0.20498822629451752, 0.008163629099726677, 0.20014524459838867, 0.0670216754078865, -0.026485025882720947, 0.05220763757824898, 0.10358116030693054, -0.15103870630264282, 0.4596032202243805, 3.5209836959838867, 0.802071213722229], [2.8735592365264893, -2.058612823486328, -1.3680554628372192, -1.1850507259368896, 0.17864033579826355, -0.039581820368766785, -0.24759869277477264, 0.07793209701776505, -0.25021713972091675, -0.07717839628458023, 0.16911731660366058, 0.3411717116832733, -0.6343913674354553, 0.1428021341562271, 2.998908758163452, -2.411858081817627, -1.2014223337173462], [-2.1558303833007812, -0.020659662783145905, 0.44863229990005493, -0.27122393250465393, 0.5609410405158997, 0.017174215987324715, -0.026623722165822983, 0.08478278666734695, -0.08357609063386917, 0.05051709711551666, -0.03701941668987274, -0.46294116973876953, 0.07091844081878662, -0.13529597222805023, -2.7828166484832764, 0.1599818468093872, 0.3178204298019409], [0.0847666934132576, 1.1474332809448242, 0.6616325378417969, 0.3194921910762787, -0.18827903270721436, 0.6778662204742432, -0.1608780175447464, -0.03334600105881691, -0.046081509441137314, -0.23597590625286102, -0.2778439521789551, -0.28144779801368713, 0.41674715280532837, 0.2287493646144867, 0.29599878191947937, 0.9795587658882141, 0.6891254782676697], [-0.278239905834198, -3.6683788299560547, 1.9551398754119873, 1.5349715948104858, -0.10639501363039017, -0.07940857112407684, -0.08437836915254593, -0.054951637983322144, -0.10910847783088684, -0.03217441588640213, 0.24058640003204346, -0.010030525736510754, 0.3773478865623474, -0.05458657443523407, -0.18820320069789886, -4.789385795593262, 1.954655408859253], [-0.40889960527420044, -1.3384387493133545, -0.6464471220970154, -0.2712138891220093, 0.312192440032959, -0.88379967212677, 0.15678657591342926, -0.013485467061400414, -0.20039702951908112, 0.020685281604528427, -0.2573828101158142, -0.6255150437355042, -0.16356979310512543, -0.07652318477630615, -0.4015222191810608, -1.4317587614059448, -0.5916352868080139], [0.8142901659011841, 0.1296306997537613, -0.334097683429718, 0.5842982530593872, -0.11762279272079468, 1.0070264339447021, -0.13746315240859985, -0.03518547862768173, 0.43191245198249817, -0.0346268005669117, 0.07270290702581406, 0.4645712971687317, 0.3952678442001343, 0.13446368277072906, 0.782171368598938, 0.28942596912384033, -0.17360267043113708], [-0.4945235252380371, 4.432315826416016, 0.7174980640411377, -0.2215895801782608, -0.05475736781954765, 0.2633809447288513, 0.14319422841072083, 0.03560744971036911, 0.0188489630818367, -0.022638117894530296, -0.056445762515068054, -0.12597312033176422, 0.025902744382619858, -0.10533419251441956, -0.6937784552574158, 4.978035926818848, 0.6927833557128906], [0.26578229665756226, 0.7825352549552917, 0.6691544055938721, -0.02377849631011486, -2.1993751525878906, 0.796920895576477, -0.022714784368872643, 0.0745600089430809, 0.1668023020029068, 0.036394014954566956, 0.1600257307291031, 0.1470428705215454, -0.12575556337833405, -0.04449887201189995, 0.3368663191795349, 0.9118466973304749, 0.5968539118766785], [0.4686797559261322, 2.0550384521484375, 0.10666497051715851, 0.31945517659187317, -0.15294049680233002, 0.6212514638900757, -0.14580877125263214, 0.0033284625969827175, 0.20261023938655853, -0.17148081958293915, -0.04014616087079048, -0.009091448038816452, -0.10600893199443817, -0.023722127079963684, 0.34760376811027527, 2.255527973175049, 0.1604270040988922], [-0.5051406621932983, 2.450073480606079, -0.12164917588233948, -0.22236020863056183, 0.25252220034599304, -0.17768874764442444, -0.30397358536720276, 0.29023686051368713, -0.16903935372829437, -0.016337916254997253, -0.29467013478279114, -0.26484888792037964, -0.1568956822156906, 0.07982229441404343, -0.5988553166389465, 3.0717365741729736, -0.12115950882434845], [-1.2888628244400024, -0.9284916520118713, 0.6022374629974365, 0.7095310688018799, 1.0530452728271484, -0.44852137565612793, 0.12515822052955627, 0.018933715298771858, -0.030612673610448837, 0.05909067019820213, -0.2641010582447052, 0.3729109466075897, 0.054395996034145355, -0.23947332799434662, -1.5196467638015747, -1.006813645362854, 0.5716438889503479], [0.7267996072769165, 0.5837007761001587, -0.1169346272945404, 2.8602869510650635, 0.15068863332271576, 0.13685204088687897, 0.29036006331443787, 0.02287299372255802, 0.26567569375038147, 0.01818401925265789, 0.07820185273885727, 0.30822819471359253, -0.2876723110675812, 0.10010185092687607, 1.011242151260376, 0.377042293548584, -0.10352303832769394], [1.694899082183838, 0.31155911087989807, 0.21450528502464294, 0.37024515867233276, -0.0029621843714267015, 1.2861483097076416, 0.059101004153490067, -0.019762244075536728, -0.17572441697120667, 0.12633571028709412, 0.14476019144058228, 0.5405789017677307, 0.19131357967853546, -0.14358635246753693, 1.9953765869140625, 0.4321229159832001, 0.16515937447547913], [0.3622414469718933, 2.1075942516326904, 3.54447340965271, -0.7962161898612976, -0.8556169867515564, -1.4976041316986084, -0.6211795806884766, -0.39855122566223145, 0.6212505102157593, -0.07372739911079407, -0.17453499138355255, -0.1305219531059265, 0.3036094605922699, 0.24287456274032593, 0.2713768482208252, 2.5075690746307373, 3.6756908893585205], [-0.8560287952423096, 0.2541409432888031, -4.44256591796875, -1.2271442413330078, 0.875302255153656, -1.5574175119400024, -0.4688652455806732, 0.023885849863290787, 0.1302160620689392, 0.008281590417027473, -0.12593606114387512, -0.03382088616490364, 0.2923133671283722, -0.06854026019573212, -1.196067452430725, 0.26489412784576416, -4.51939058303833], [0.36366111040115356, -2.0696682929992676, -0.5715359449386597, -0.16626812517642975, -1.3133937120437622, 0.5273102521896362, 0.12820503115653992, -0.0813104659318924, 0.06943461298942566, -0.06407703459262848, -0.13485415279865265, -0.11659956723451614, -0.03267782926559448, 0.11370113492012024, 0.3370235860347748, -3.080897569656372, -0.4922659695148468], [-0.6637229919433594, 3.6830947399139404, 0.5237972140312195, -0.6760106086730957, -0.11704827845096588, -0.501116156578064, -0.010536297224462032, 0.025982383638620377, -0.10571131110191345, -0.13177651166915894, 0.05676250904798508, -0.16800731420516968, -0.16827170550823212, 0.07333558052778244, -0.4914344251155853, 4.278217315673828, 0.42364636063575745], [0.7057812213897705, 0.26872462034225464, -0.035542067140340805, 1.56805419921875, 0.6329264044761658, -0.451617032289505, 0.3350830078125, 0.012948373332619667, 0.10882861167192459, -0.010640205815434456, 0.30105671286582947, 0.1475108116865158, 0.03681588172912598, -0.005986421834677458, 0.634373664855957, 0.24810676276683807, 0.04016032814979553], [0.5390076041221619, 1.553334355354309, -2.5832343101501465, 0.49043357372283936, 0.07360005378723145, -1.7120811939239502, 0.2784850001335144, 0.04009227082133293, 0.31539925932884216, 0.08226654678583145, -0.47443917393684387, -0.7677000761032104, -0.015222031623125076, -0.031105607748031616, 0.5925118327140808, 1.666926622390747, -2.5254597663879395], [0.3447965085506439, 3.2119100093841553, 0.8158636093139648, 0.15336020290851593, -0.3230925500392914, 0.18125952780246735, -0.12249597162008286, 0.03349512070417404, -0.09646999090909958, -0.1945427507162094, -0.11172246932983398, 0.18395526707172394, 0.0048477528616786, -0.1667838841676712, 0.44506216049194336, 3.560546636581421, 0.8378511667251587], [-0.6111417412757874, 0.5649313926696777, -0.5877044796943665, -1.508756160736084, -0.015556790865957737, -1.1021695137023926, -0.15410029888153076, 0.042991843074560165, -0.07390836626291275, 0.015278320759534836, -0.1707940399646759, -0.3649898171424866, -0.1272067278623581, -0.033921822905540466, -0.6663782596588135, 0.5093485116958618, -0.60662841796875], [-0.2585783898830414, -0.9599491953849792, 1.2778027057647705, -1.8161250352859497, 0.4178726077079773, 0.5083927512168884, -0.004146835301071405, 0.055865589529275894, 0.05784539133310318, 0.046091388911008835, -0.43905264139175415, -0.4443437159061432, 0.30161839723587036, -0.05395679920911789, 0.01573163829743862, -1.0215460062026978, 1.0835856199264526], [1.0161598920822144, 1.7681965827941895, -0.008112413808703423, 0.6270865201950073, 0.3260587453842163, -0.11934494227170944, 0.12589730322360992, -0.011901143938302994, -0.054203663021326065, 0.02444092556834221, -0.1124827116727829, 0.11913155764341354, 0.09490220993757248, 0.083992138504982, 0.698889434337616, 1.7663829326629639, -0.2554657459259033], [-0.6041144132614136, 2.733631134033203, -1.6163063049316406, 0.6060770153999329, -0.2123633325099945, -1.0423301458358765, -0.07687871903181076, 0.14654020965099335, 0.09871599823236465, -0.05715201795101166, 0.12524566054344177, 0.22215571999549866, 0.20882126688957214, 0.00034585263347253203, -0.831210732460022, 3.443053960800171, -1.4604642391204834], [-1.0865764617919922, -0.3849669396877289, 0.1748507171869278, -1.1516098976135254, -0.6112673282623291, 0.47955232858657837, -0.08629046380519867, 0.009475544095039368, -0.08948314189910889, 0.06395408511161804, 0.09671379625797272, -0.1482766717672348, -0.2506329119205475, -0.12250664830207825, -1.0506231784820557, -0.539922833442688, 0.25552868843078613], [0.05385774001479149, 1.6088805198669434, 4.376659393310547, -0.31647080183029175, -0.41443678736686707, 0.472245454788208, 0.37096861004829407, -0.09578373283147812, -0.3240235149860382, 0.11235181987285614, -0.12750181555747986, -0.23605620861053467, 0.1757735013961792, -0.08835488557815552, 0.04538102075457573, 1.9792730808258057, 4.51069450378418], [-0.12538452446460724, 2.3431549072265625, 0.37264207005500793, -0.14013415575027466, 0.4618443548679352, -1.3316375017166138, -0.35206252336502075, -0.02702752687036991, -0.4743034839630127, -0.03376971557736397, -0.07349004596471786, 0.04997211694717407, -0.16420985758304596, -0.0277452040463686, -0.128646120429039, 3.058799982070923, 0.36676958203315735], [-0.1259661465883255, -2.0340373516082764, -3.6155755519866943, -0.44053491950035095, -0.47510477900505066, 1.1417253017425537, 0.2865646183490753, -0.16365888714790344, -0.3666285276412964, 0.07839764654636383, 0.03669951856136322, -0.011684770695865154, -0.3496544361114502, -0.16050776839256287, -0.11488718539476395, -2.2589874267578125, -3.443842887878418], [-0.4984884560108185, 2.4623305797576904, -0.935563325881958, -0.9322773218154907, 0.24803544580936432, -1.1170499324798584, 0.10155875235795975, 0.037066515535116196, 0.485331654548645, 0.017032096162438393, 0.3323701322078705, -0.1443232297897339, 0.12270497530698776, -0.008995712734758854, -0.3381511867046356, 3.1129374504089355, -1.0442743301391602], [0.20930926501750946, 1.045512318611145, 1.8677715063095093, 0.18573032319545746, 0.7140001058578491, -0.08877058327198029, -0.2299700826406479, -0.011331084184348583, 0.22831352055072784, 0.0854586511850357, 0.05092770606279373, -0.00339978258125484, 0.04354120418429375, -0.052120912820100784, 0.31620845198631287, 0.944044291973114, 1.8307244777679443], [-1.9441208839416504, -2.11741042137146, -0.4561023414134979, 0.6440716981887817, -0.4817069172859192, -0.4739706218242645, -0.2618008553981781, -0.09166251868009567, -0.27236220240592957, 0.077732153236866, 0.024156302213668823, 0.1752680391073227, -0.18130657076835632, -0.059904854744672775, -2.3663320541381836, -2.709078550338745, -0.23493637144565582], [0.48631206154823303, -1.8091564178466797, -4.189315319061279, -1.7968034744262695, 0.06321726739406586, -0.9351910352706909, -0.25824010372161865, -0.01250286865979433, 0.0012640089262276888, -0.03190154582262039, -0.05312738195061684, -0.09794269502162933, 0.17964696884155273, 0.12268917262554169, 0.6604996919631958, -2.180494785308838, -4.244156837463379], [-0.8653656840324402, 0.7855682373046875, -0.07913709431886673, -0.9048193693161011, 0.13886864483356476, 0.5847188234329224, -0.28586846590042114, 0.09200399369001389, -0.11131743341684341, -0.0010336213745176792, -0.07327752560377121, -0.24031469225883484, -0.11671493202447891, -0.17523597180843353, -0.9854699373245239, 0.6180756092071533, -0.14836016297340393], [-0.24586141109466553, -5.004156589508057, 3.8894360065460205, 0.4639022648334503, 0.011819533072412014, -2.9786949157714844, -0.3960644006729126, -0.26246389746665955, 0.07092170417308807, -0.038908254355192184, -0.17583245038986206, 0.21560446918010712, -0.20850920677185059, -0.05469384044408798, -0.09928199648857117, -6.7326765060424805, 3.8550398349761963], [-0.05440869182348251, 2.2294423580169678, -0.3555181622505188, 4.018565654754639, -0.12335457652807236, 1.714945673942566, 0.2616391181945801, 0.111213818192482, -0.6534599661827087, -0.05457931384444237, -0.25201523303985596, -0.42310136556625366, 0.11841949075460434, 0.27637380361557007, -0.18949680030345917, 2.375316619873047, -0.33172887563705444], [-0.5478346943855286, 0.19743509590625763, -0.8188427686691284, 0.9074975252151489, 0.3282150328159332, -1.124558448791504, 0.0452280193567276, -0.005888309795409441, 0.23337095975875854, -0.006520984228700399, 0.21170157194137573, 0.17263449728488922, 0.07376144826412201, 0.07402904331684113, -0.7944159507751465, 0.0560334213078022, -0.5393996238708496], [-0.6650007963180542, 0.3345186412334442, -0.37560975551605225, -1.7106033563613892, -0.5901566743850708, 1.5478570461273193, 0.43635037541389465, 0.1367959827184677, 0.37205228209495544, -0.012156275101006031, 0.13887931406497955, 0.16536208987236023, 0.36126792430877686, -0.006480935961008072, -0.4914800226688385, 0.4249211549758911, -0.20402489602565765], [4.213424205780029, -0.11430780589580536, 0.0068931845016777515, 1.468658208847046, -0.22045359015464783, -0.4063342809677124, -0.27465328574180603, -0.07926609367132187, -0.22990728914737701, -0.08841120451688766, -0.29682502150535583, -0.15335936844348907, -0.30739742517471313, 0.15107597410678864, 5.423290729522705, -0.23976777493953705, 0.16013644635677338], [-1.3499858379364014, 0.0936511978507042, -0.5763010382652283, 0.03117222711443901, -0.0654652938246727, -1.1530253887176514, 0.06918051838874817, -0.1560593694448471, -0.2233685702085495, 0.006497099529951811, -0.032997410744428635, 0.4990399181842804, -0.2292454093694687, 0.065096415579319, -1.5038902759552002, 0.25275182723999023, -0.8077460527420044], [0.08410098403692245, 3.070039987564087, -0.3062744736671448, -0.32945409417152405, -0.19097113609313965, 0.03363560140132904, 0.028383906930685043, -0.19798117876052856, 0.30519717931747437, -0.27352046966552734, 0.06081615760922432, 0.19275973737239838, 0.36974266171455383, 0.04655054956674576, 0.2718503773212433, 3.1354117393493652, -0.19820243120193481], [-3.7584502696990967, -0.20284660160541534, -0.03504444286227226, -2.3041703701019287, -0.15364530682563782, -0.06878490000963211, 0.4354388415813446, -0.011217703111469746, 0.0009898643475025892, 0.006604302674531937, 0.3320869505405426, 0.18000347912311554, -0.17433014512062073, 0.01680477149784565, -5.076090335845947, -0.30499038100242615, 0.10252855718135834], [-0.4590090811252594, -0.5409643650054932, 0.1301129311323166, -0.3892749845981598, -0.4953104257583618, 0.30378246307373047, 0.25004154443740845, 0.05704332888126373, 0.11860869824886322, 0.018654583021998405, 0.09963368624448776, 0.0938984751701355, -0.05656914412975311, -0.02941928431391716, -0.6233498454093933, -0.36101576685905457, 0.04520447179675102], [2.1882991790771484, 0.31977808475494385, -0.30789971351623535, 1.2065714597702026, 0.1943850815296173, -0.8281871676445007, -0.15066088736057281, 0.00108788360375911, -0.15751071274280548, 0.07088211923837662, -0.14262966811656952, -0.7055603861808777, -0.1396792083978653, -0.0005409111618064344, 2.6694037914276123, 0.29844552278518677, -0.24022047221660614], [1.1721997261047363, -0.5269082188606262, -9.829765319824219, 0.981627881526947, 0.6225772500038147, 3.4505741596221924, -0.9999539852142334, 0.13980291783809662, 0.11466924101114273, -0.1484549343585968, 0.4032077193260193, 0.15402792394161224, -0.03390137478709221, 0.36531585454940796, 1.3011374473571777, -0.704026460647583, -9.68015193939209], [0.20750625431537628, -2.9706406593322754, -1.0934053659439087, -1.0329097509384155, 0.1301068365573883, 0.089711032807827, 0.4277596175670624, -0.03932907059788704, 0.5247296094894409, 0.0709046870470047, 0.08618054538965225, -0.13282476365566254, 0.3500981032848358, 0.04752270504832268, 0.31436464190483093, -3.755819082260132, -1.0656245946884155], [-1.3729300498962402, -0.04231107980012894, 0.005510128103196621, -1.5147008895874023, -0.3723892569541931, 0.07166647166013718, -0.20021694898605347, -0.0024632629938423634, -0.21511581540107727, -0.0432995967566967, -0.14376014471054077, 0.0058911144733428955, -0.2975254952907562, 0.1587110459804535, -1.444688320159912, -0.10458379983901978, -0.004266852512955666], [-0.9378535151481628, 0.2864690124988556, -1.1018155813217163, -0.07712512463331223, 0.16546301543712616, -0.5967761278152466, 0.11046236008405685, -0.09858860820531845, 0.12173949927091599, -0.011345621198415756, -0.12082508951425552, 0.9684121012687683, -0.03725631907582283, -0.035375189036130905, -0.9187642335891724, 0.3502851128578186, -1.153857707977295], [-0.10220795124769211, -1.1803404092788696, -1.5555225610733032, 0.2782858610153198, 1.8162384033203125, -0.8186583518981934, -0.2503819167613983, -0.24672561883926392, -0.8894053101539612, 0.005145663861185312, 0.07468263804912567, -0.20303460955619812, -0.13386555016040802, -0.05205772817134857, -0.12113050371408463, -1.2474831342697144, -1.62035071849823], [-0.07627331465482712, -0.09440910071134567, 0.8346647620201111, -1.3012337684631348, -0.0166009534150362, -0.29864999651908875, 0.2736097574234009, 0.2985641658306122, -0.44038933515548706, 0.033164914697408676, -0.31536367535591125, -0.49614909291267395, 0.2375849187374115, 0.3306923806667328, -0.10086008161306381, -0.06559191644191742, 0.7861667275428772], [0.5561599731445312, -0.04569907858967781, 1.4054734706878662, 0.4411448538303375, -0.5542733669281006, 0.14479424059391022, -0.4384292960166931, -0.016431448981165886, 0.004324627108871937, -0.0803312137722969, -0.08341088891029358, -0.12083525955677032, 0.01400070171803236, 0.25714078545570374, 0.8181082606315613, 0.06167194992303848, 1.3758265972137451], [-0.09928619861602783, 0.3425922989845276, -0.3275168240070343, -1.392921805381775, -0.13726429641246796, 0.043151743710041046, -0.5220159888267517, -0.04756300896406174, -0.21799932420253754, -0.044421665370464325, -0.05145466327667236, 0.9625446200370789, -0.1706661731004715, -0.09743829816579819, -0.18054910004138947, 0.3087395429611206, 0.07353740930557251], [-0.29884546995162964, 2.0686585903167725, -0.6348466873168945, 1.1011706590652466, -0.1962970495223999, 2.028571367263794, 0.7335253953933716, -0.02113402634859085, -0.051331568509340286, 0.10482747852802277, 0.49167799949645996, 0.10755947232246399, -0.1376902461051941, -0.038446731865406036, -0.2882762551307678, 1.988971471786499, -0.6742092370986938], [-0.157319575548172, -1.114168405532837, -0.1282648891210556, 0.24131503701210022, -0.17228767275810242, -0.24888040125370026, 0.3338387608528137, 0.05755891650915146, 0.05936305224895477, 0.08815527707338333, 0.16126921772956848, -0.28276342153549194, -0.18578332662582397, -0.020303744822740555, -0.1073317751288414, -1.1451250314712524, -0.09272027015686035], [1.1857047080993652, 4.267982482910156, -1.786118745803833, 0.2590445578098297, -0.8070724010467529, -0.3853914439678192, -0.17096929252147675, 0.11132758855819702, -0.1326223760843277, 0.06384801119565964, -0.021903596818447113, 0.006735329981893301, -0.13139329850673676, -0.12082594633102417, 1.3832372426986694, 6.83454704284668, -1.8060826063156128], [0.1215871274471283, 4.684053421020508, 0.3690558969974518, -0.25999367237091064, 0.20219409465789795, 0.19463568925857544, 0.05229373276233673, -0.004424459300935268, -0.03756585717201233, 0.040854815393686295, -0.181485116481781, -0.08099797368049622, 0.08813834190368652, -0.0715872123837471, 0.36956602334976196, 6.409875869750977, 0.4172153174877167], [1.37173593044281, -2.8053996562957764, -0.5581330060958862, 0.23801077902317047, -0.4416947066783905, -0.07897689193487167, -0.11884903162717819, 0.02057209238409996, -0.07879894971847534, 0.0038788076490163803, 0.2780281901359558, -0.1159258782863617, -0.06819434463977814, -0.06057864427566528, 1.37717604637146, -3.405804395675659, -0.734593391418457], [-0.7883771061897278, -0.4476291239261627, -0.18335723876953125, 0.4781605303287506, -0.08701734989881516, -1.4022307395935059, 0.21606186032295227, 0.05705241113901138, 0.1580570638179779, 0.020170699805021286, -0.022217925637960434, -0.35630643367767334, -0.23505929112434387, -0.33188512921333313, -1.0293737649917603, -0.3348921239376068, 0.10530880838632584], [1.0437122583389282, 0.8636897206306458, -5.71164608001709, -2.6012179851531982, 0.95024573802948, 0.5400948524475098, 0.4743252098560333, 0.07895036786794662, 0.19681048393249512, 0.00894540548324585, 0.0948544293642044, 0.5359591245651245, -0.870375394821167, -0.006889240350574255, 1.1415033340454102, 0.8321341872215271, -5.7924628257751465], [0.6439167261123657, -0.20452576875686646, -0.5378610491752625, -0.42821183800697327, 0.5543519854545593, -0.12902867794036865, -0.03373711556196213, -0.08457989245653152, -0.17115920782089233, -0.19962948560714722, -0.5089300274848938, 0.5168166756629944, 0.3571733236312866, 0.5838549733161926, 0.9475027322769165, -0.03871767967939377, -0.5442733764648438], [0.73689204454422, 3.5223684310913086, -3.635932683944702, 0.18007296323776245, 0.3555046617984772, 1.8914839029312134, 0.3699987530708313, -0.09167249500751495, -0.3278762400150299, 0.02079130709171295, 0.15925383567810059, -0.0718139261007309, -0.02156606875360012, 0.016998471692204475, 0.6740150451660156, 4.0842671394348145, -3.6968483924865723], [-0.4029545783996582, 5.688194751739502, -2.40524959564209, 0.5431777834892273, -1.522379755973816, -0.4427836537361145, 0.11861880123615265, -0.0024124840274453163, 0.2491406351327896, -0.04192371666431427, 0.13222795724868774, -0.010004482232034206, -0.1013718768954277, 0.058713022619485855, -0.3166700303554535, 8.412335395812988, -2.343362808227539], [-1.9329509735107422, -0.0028209995944052935, 0.08315880596637726, -0.844482421875, -0.19547513127326965, -0.7385570406913757, 0.04995456710457802, -0.077423594892025, 0.06255576759576797, -0.04960872605443001, 0.22785082459449768, 0.08668184280395508, -0.13730251789093018, 0.20266348123550415, -2.1944522857666016, -0.06804795563220978, 0.20004607737064362], [-1.7530853748321533, 0.6609985828399658, 1.0265307426452637, -0.5835177302360535, -0.10677175968885422, -0.6643902659416199, -0.4227805733680725, 0.025244245305657387, -0.3247312307357788, -0.04283261299133301, -0.16647379100322723, -0.673038899898529, -0.1753455102443695, 0.17561911046504974, -1.9557451009750366, 0.5961790680885315, 0.8891172409057617], [0.10330113768577576, 0.16676607728004456, 0.2879515588283539, 3.828874349594116, -0.0004114613984711468, -0.12140355259180069, 0.5133211612701416, 0.5430580377578735, -0.22711029648780823, 0.05206923186779022, 0.7446683049201965, 0.18197302520275116, 0.2554498314857483, -0.23117466270923615, 0.17730401456356049, -0.028201749548316002, 0.1580856889486313], [-0.16402100026607513, 0.12786149978637695, -0.9643055200576782, -0.1670922189950943, 0.30784714221954346, -0.8108240365982056, -0.2551906704902649, -0.08541784435510635, 0.304300457239151, -0.0006754696369171143, -0.2739417552947998, -0.46251216530799866, 0.672855794429779, 0.021694866940379143, -0.22669026255607605, 0.0677635595202446, -0.8507906794548035], [-0.14647530019283295, 2.9708023071289062, -1.6533914804458618, 0.32271549105644226, 0.0951947346329689, 0.6924952864646912, 0.3751101493835449, 0.08968758583068848, -0.43093910813331604, 0.16658322513103485, 0.016288870945572853, -0.21434494853019714, 0.07308220118284225, -0.06821343302726746, -0.1027899831533432, 4.041315078735352, -1.50885808467865], [-0.30632394552230835, -1.0077574253082275, -1.1117196083068848, -0.7071559429168701, -0.15058660507202148, -0.6927957534790039, -0.06262809783220291, 0.06509044766426086, 0.06676409393548965, 0.06299715489149094, -0.05001821368932724, -0.4400806725025177, 0.024838119745254517, -0.042705684900283813, -0.4880368709564209, -1.2184466123580933, -1.1307839155197144], [0.29348185658454895, -4.527657508850098, -0.852251410484314, -0.8170178532600403, -0.2514269948005676, -0.6588868498802185, -0.201506108045578, 0.11399299651384354, -0.235742449760437, 0.03515371307730675, -0.13407637178897858, 0.10252894461154938, -0.08628959953784943, -0.15046021342277527, 0.284803181886673, -5.937833309173584, -0.8221599459648132], [-0.6931384801864624, 1.324419379234314, -0.653893232345581, -0.5493577718734741, 0.42207038402557373, -0.26322874426841736, -0.03851006180047989, 0.10920881479978561, -0.1975463479757309, 0.04297860339283943, -0.21206794679164886, -0.29044321179389954, 0.06911647319793701, 0.0030385800637304783, -0.811307966709137, 1.559181809425354, -0.5443371534347534], [-0.04829453304409981, -0.6842972636222839, -0.05752778798341751, 1.1673165559768677, -0.03673398494720459, 0.8438510894775391, 0.19245459139347076, -0.08005385100841522, 0.38931339979171753, -0.17977078258991241, 0.2685193717479706, 0.42576366662979126, 0.2002159208059311, 0.3172700107097626, 0.07104116678237915, -0.6980189085006714, -0.2156476080417633], [0.07770408689975739, -2.22324275970459, 3.0348551273345947, -0.6211830973625183, 0.31415367126464844, 1.1594549417495728, 0.017131704837083817, -0.05552714318037033, 0.7599951028823853, 0.11969001591205597, 0.18218272924423218, 0.1675865650177002, 0.39723244309425354, -0.23567494750022888, 0.2661127746105194, -2.6824376583099365, 3.0110700130462646], [1.2058424949645996, -1.838996410369873, 0.38328564167022705, -0.6972909569740295, 0.08922839164733887, -0.9220417141914368, 0.6998050212860107, 0.003206341527402401, 0.4695148766040802, 0.0693601593375206, -0.46011883020401, 0.27226364612579346, 0.4414014518260956, -0.15626569092273712, 1.316888689994812, -2.0982272624969482, 0.6479839086532593], [-1.506220817565918, -0.6116358637809753, -2.1160356998443604, 1.5271055698394775, 0.3814811408519745, -3.9316601753234863, -0.904321014881134, -0.051495395600795746, 0.003877442330121994, -0.0817723497748375, -0.49215614795684814, 0.04905266314744949, -0.10525229573249817, 0.06834448873996735, -1.8323825597763062, -0.7407104969024658, -2.3317952156066895], [-0.27604374289512634, 0.7331628203392029, -0.47968852519989014, 0.40645352005958557, 0.04328073188662529, 0.402836412191391, 0.008668500930070877, -0.1650291383266449, 0.311213880777359, 0.065296970307827, 0.07114768028259277, 1.5939346551895142, 0.03364584594964981, -0.11718966066837311, -0.41804027557373047, 0.6033080220222473, -0.25134775042533875], [-0.8140448331832886, 2.5462348461151123, -1.7579604387283325, 1.0261574983596802, -0.25883540511131287, -0.5365006327629089, 0.00409712316468358, -0.01725468412041664, -0.056380826979875565, -0.0073785847052931786, 0.0029158375691622496, 0.32797273993492126, -0.32359132170677185, 0.06478408724069595, -0.7748315930366516, 2.7863047122955322, -1.7707912921905518], [1.7608904838562012, -3.0664048194885254, -0.4295409321784973, -0.07737655937671661, 0.15789368748664856, -1.6639630794525146, -0.5961722135543823, -0.6037045121192932, 0.06229948252439499, 0.005233061499893665, 0.16487270593643188, -0.6229454278945923, -0.40013834834098816, -0.29393354058265686, 1.5141913890838623, -3.301891326904297, -0.24889057874679565], [0.589985728263855, -0.009581400081515312, -0.7514539361000061, 0.21095535159111023, -0.7026152014732361, -1.2812539339065552, 0.25855129957199097, 0.016703885048627853, -0.36407047510147095, -0.07021038979291916, -0.047792769968509674, 0.11153312772512436, -0.24334846436977386, 0.08824633061885834, 0.4717625677585602, -0.1935720294713974, -0.8791359663009644], [0.08349248021841049, -0.5206789970397949, 0.694844663143158, 0.65730220079422, -0.15251174569129944, 0.030714839696884155, -0.05097512900829315, 0.035993896424770355, 0.0306240301579237, 0.23032957315444946, -0.17367947101593018, 0.029008563607931137, 0.026039551943540573, -0.38535693287849426, -0.1341620236635208, -0.5719608068466187, 0.6313268542289734], [0.7603316307067871, 0.8041609525680542, -0.27349838614463806, 1.403654932975769, 0.2915676534175873, -0.06562406569719315, 0.1084534153342247, -0.0074423919431865215, 0.11725994199514389, 0.03589727357029915, -0.05067651346325874, -0.10344043374061584, -0.006412213668227196, -0.1374378800392151, 0.9372979402542114, 0.7567596435546875, -0.3438611924648285], [0.1706288456916809, 3.2292962074279785, 1.0505704879760742, -0.5355939269065857, 0.3505256772041321, -0.2542159855365753, -0.10139945894479752, -0.3103747069835663, 0.5203543305397034, 0.028992587700486183, 0.24960003793239594, 0.09461730718612671, -0.11193038523197174, 0.0965808853507042, 0.17155210673809052, 3.931584358215332, 0.9536407589912415], [-1.7007232904434204, 0.2158156931400299, 0.4843800663948059, -0.5790071487426758, -0.3752228319644928, 1.0741897821426392, -0.01558015588670969, -0.038131751120090485, -0.38373002409935, -0.053107306361198425, -0.022327788174152374, 0.5520092844963074, -0.021991729736328125, 0.12062792479991913, -1.9046138525009155, 0.26212236285209656, 0.6363291144371033], [-0.3321686089038849, -0.8801995515823364, 0.1705545037984848, -0.10216643661260605, -0.07018306106328964, 0.6124538779258728, -0.006669153925031424, -0.012813867069780827, -0.03615105152130127, 0.06236507371068001, 0.05406799912452698, -0.15470023453235626, -0.21298252046108246, 0.001165157649666071, -0.4193757474422455, -0.8892989158630371, 0.1977778971195221], [0.20606793463230133, -1.5031899213790894, 0.45914986729621887, 0.07804980129003525, 0.1632428616285324, -0.5657780170440674, 0.3403773605823517, 0.007459488697350025, -0.32691869139671326, 0.20717968046665192, 0.3726382851600647, -0.13430607318878174, -0.23746205866336823, -0.18752485513687134, 0.1751256138086319, -1.73453688621521, 0.33682698011398315], [-0.5164910554885864, -2.0534186363220215, -0.4430425465106964, -1.0230629444122314, 0.3108122944831848, 0.34361979365348816, 0.34342440962791443, -0.025966385379433632, -0.1705259531736374, 0.08260020613670349, -0.012087860144674778, 0.1102682501077652, -0.1137983575463295, 0.037881042808294296, -0.455859899520874, -2.049912214279175, -0.38509246706962585], [-0.08190610259771347, 3.58673095703125, -0.09395791590213776, 0.620860755443573, -0.29083967208862305, -0.1537671834230423, -0.07001008093357086, -0.01484316773712635, 0.10519709438085556, -0.10379178822040558, 0.09474776685237885, 0.19185467064380646, 0.10890750586986542, -0.04191698506474495, -0.023707395419478416, 3.947521209716797, -0.13196079432964325], [-0.28163379430770874, -3.70531964302063, -0.14039355516433716, -0.2991622984409332, -0.21269480884075165, -0.6922785043716431, -0.08552513271570206, 0.08878757804632187, -0.30312076210975647, 0.04467422887682915, 0.19628480076789856, -0.1653802990913391, -0.18517214059829712, -0.06136872246861458, -0.3220437169075012, -4.987696170806885, 0.06151605024933815], [0.9076279401779175, -0.49094048142433167, 0.2701881527900696, 1.6737658977508545, -0.09186864644289017, 0.09697581082582474, -0.09156198799610138, 0.0691974014043808, 0.1353624314069748, 0.013120239600539207, 0.011686956509947777, -0.8244789242744446, -0.05599711835384369, 0.02860856056213379, 0.7358348369598389, -0.5764339566230774, 0.3479609489440918], [-2.038771867752075, -0.751991331577301, 2.1075971126556396, 1.5049865245819092, -1.3950178623199463, 0.6820455193519592, -0.11530715972185135, 0.28673920035362244, -0.7016614675521851, 0.011264711618423462, -0.4096549451351166, -0.044285137206315994, -0.36095258593559265, 0.1929141879081726, -2.1445250511169434, -0.8568016886711121, 2.1698696613311768], [-1.8456268310546875, 1.5230181217193604, -0.34860727190971375, -0.35683488845825195, -0.10231568664312363, -1.0234863758087158, -0.140974223613739, -0.10536278784275055, -0.09268391132354736, -0.12706971168518066, -0.03285651654005051, 0.31296253204345703, -0.3528370261192322, 0.2803298532962799, -2.096931219100952, 1.5529909133911133, -0.4270395040512085], [-0.7304013967514038, -4.215831756591797, -0.33429351449012756, -0.07549024373292923, -0.0634806901216507, -0.5998744368553162, -0.02082207426428795, -0.10598642379045486, 0.13719521462917328, 0.007517326157540083, -0.09498363733291626, -0.1813429594039917, 0.0061715757474303246, 0.038861557841300964, -0.8089999556541443, -5.055531024932861, -0.4010619819164276], [0.13278745114803314, 5.350229740142822, -0.9991603493690491, -0.12175282090902328, -1.8631678819656372, -0.9748985767364502, 0.057348351925611496, 0.024426603689789772, 0.2029978185892105, 0.0509219616651535, -0.08987055718898773, 0.07759027928113937, 0.03316914290189743, -0.09249694645404816, 0.2625800669193268, 8.043780326843262, -1.1063941717147827], [2.596738338470459, -0.19960787892341614, 1.008241891860962, 0.857068657875061, -0.1764139086008072, 0.3585944175720215, -0.04202987253665924, -0.043258726596832275, 0.13014894723892212, -0.03903878852725029, -0.0008191464003175497, 0.10408507287502289, -0.03278610110282898, 0.040928468108177185, 3.0424134731292725, -0.1742994487285614, 1.086591362953186], [1.0411853790283203, 1.9998810291290283, 1.1521497964859009, -1.2479875087738037, 0.1215108260512352, -0.09311574697494507, 0.11738758534193039, -0.0028810284566134214, 0.06505049020051956, 0.17560802400112152, -0.09004770219326019, 0.13623447716236115, 0.15041041374206543, -0.27847591042518616, 1.0163588523864746, 2.3199660778045654, 1.3026903867721558], [-0.8996104001998901, 0.1262037605047226, -0.252429723739624, -1.9821826219558716, 0.21907483041286469, -0.6954641342163086, -0.4827626049518585, -0.005225979257375002, -0.1950688660144806, 0.08868540823459625, 0.04730600863695145, 0.30320632457733154, -0.08351583033800125, -0.1686944216489792, -1.2027612924575806, 0.05103757604956627, -0.09398413449525833], [-0.08876627683639526, 2.1583149433135986, 4.281277179718018, -1.5855127573013306, 0.21436166763305664, 0.5780190229415894, 0.33182674646377563, 0.04958515241742134, 0.23464079201221466, 0.02803872711956501, 0.29505693912506104, -0.16217751801013947, 0.15804798901081085, 0.058538202196359634, -0.0420602411031723, 2.778331995010376, 4.4817585945129395], [0.33280766010284424, -0.07779683917760849, -1.1529638767242432, 0.27773845195770264, -0.8454907536506653, -0.5217496156692505, 0.22375765442848206, 0.15116675198078156, -0.49738362431526184, -0.03940119966864586, 0.19122271239757538, 0.01637876033782959, -0.3437599539756775, 0.07419051975011826, 0.2695391774177551, 0.04088573530316353, -1.3073115348815918], [-0.14727097749710083, 0.7956287264823914, -1.0442852973937988, 0.6055427193641663, 0.9928048849105835, -0.43824854493141174, -0.015567938797175884, -0.1640496402978897, 0.26616764068603516, 0.001622154377400875, 0.26547059416770935, 0.04233921691775322, 0.21710990369319916, 0.01738966628909111, -0.23205173015594482, 0.7877023220062256, -0.9615287780761719], [1.9119845628738403, 0.2737063467502594, 0.7681646943092346, 0.22326962649822235, 0.21577957272529602, -0.3888980448246002, -0.5459048748016357, -0.02163623459637165, -0.06818042695522308, 0.0478900745511055, -0.4092096984386444, 0.12197433412075043, -0.1152181476354599, -0.05161140859127045, 2.0729639530181885, 0.15529610216617584, 0.7366198897361755], [1.703606367111206, 1.2049113512039185, -1.3537440299987793, 0.6814096570014954, -0.24165108799934387, -0.5197895169258118, 0.05350887030363083, -0.11336903274059296, 0.007971556857228279, 0.041958920657634735, 0.24569322168827057, 0.010475476272404194, -0.01921454817056656, -0.11892129480838776, 1.954726219177246, 1.1742148399353027, -1.7478231191635132], [-0.12016671150922775, 0.02050512470304966, 0.1609797328710556, -2.0033233165740967, 0.05963294208049774, 0.26551878452301025, 0.2512133717536926, 0.1338949203491211, -0.045766886323690414, 0.037834297865629196, -0.22097976505756378, -2.2606008052825928, 0.4456197917461395, 0.12449415773153305, -0.24538126587867737, 0.06773172318935394, 0.17638273537158966], [0.08747940510511398, 3.383617639541626, -0.35752588510513306, 0.41006001830101013, -0.26340749859809875, -0.19015094637870789, -0.06973113119602203, 0.17472130060195923, 0.157206192612648, -0.10657723993062973, 0.0390673391520977, -0.06398063898086548, 0.007814866490662098, -0.04916946217417717, 0.05281296372413635, 3.9533557891845703, -0.28601738810539246], [0.3162749409675598, 0.6433818340301514, 0.7260422706604004, 0.28863054513931274, 0.42077791690826416, 0.5216458439826965, 0.07130716741085052, 0.16243615746498108, -0.2075268179178238, -0.09024737775325775, -0.03659036383032799, -0.7613003253936768, 0.044107213616371155, 0.28547999262809753, 0.2829205393791199, 0.4778567850589752, 0.6491643786430359], [-0.22588351368904114, -0.7260705232620239, 0.28496161103248596, 0.30220353603363037, 0.4444596469402313, -2.180870532989502, -1.4140225648880005, -0.0838707983493805, 0.3642807602882385, -0.004835965111851692, -0.9796983003616333, 0.26042383909225464, 1.284525752067566, -0.13600553572177887, -0.3996434807777405, -0.8935799598693848, 0.2805967628955841], [-0.2945259213447571, -0.13101506233215332, -0.551418125629425, -0.5161374807357788, -0.34896209836006165, -0.637626588344574, 0.04262927547097206, 0.11450890451669693, -0.12251152843236923, 0.06345376372337341, -0.015364397317171097, -1.2500377893447876, 0.014347231015563011, -0.03899726644158363, -0.324722021818161, -0.20075079798698425, -0.5841566920280457], [0.22645632922649384, -0.15082821249961853, -0.24792513251304626, 2.8520383834838867, 0.02946542203426361, -0.02966211922466755, 0.036266256123781204, -0.027807097882032394, 0.08487238734960556, -0.07543493062257767, 0.16108271479606628, 0.9681698679924011, -0.17140017449855804, 0.20192576944828033, 0.019337231293320656, -0.07424750179052353, -0.27186062932014465], [0.8613770008087158, 1.157543659210205, -0.9916228652000427, 0.5051220655441284, 0.24807538092136383, -1.4633092880249023, 0.0628310963511467, -0.04513969272375107, 0.17559179663658142, -0.08516167104244232, 0.06246022880077362, 0.03378709778189659, -0.041919585317373276, 0.19484364986419678, 0.8076757192611694, 1.1608754396438599, -1.1400563716888428], [0.2229072004556656, -0.6841476559638977, 0.887519896030426, 1.7540630102157593, -0.33393844962120056, 0.5245329737663269, -0.242035910487175, 0.022682087495923042, 0.10319991409778595, -0.01172592956572771, 0.048114579170942307, -0.5047662854194641, -0.2531152665615082, 0.0005141352885402739, 0.25324466824531555, -0.5225311517715454, 0.8887866139411926], [-0.4648439586162567, -1.1231797933578491, 0.2807632088661194, 1.7076565027236938, 0.024668941274285316, 0.38826239109039307, 0.18909306824207306, -0.0018433334771543741, -0.3079386055469513, -0.08364377170801163, -0.014458688907325268, 0.3161938488483429, -0.4982253313064575, 0.12098207324743271, -0.6266409754753113, -1.2438651323318481, 0.24753537774085999], [-0.5159092545509338, -1.9369908571243286, 1.9138195514678955, -1.329992651939392, -0.18201138079166412, -1.5663210153579712, -0.19126112759113312, -0.04235546290874481, 0.37024980783462524, -0.0170221459120512, 0.6895005702972412, -0.36977386474609375, 0.4429120123386383, -0.08580466359853745, -0.8683314919471741, -2.171008348464966, 1.9805405139923096], [-0.8589610457420349, -0.8833831548690796, 0.8813832402229309, -0.1929565966129303, 0.2554314434528351, 0.972693145275116, 0.1472371518611908, 0.035804200917482376, 0.20698672533035278, -0.08442997187376022, 0.11601381748914719, -0.28433558344841003, -0.03598087653517723, 0.08337869495153427, -1.02995765209198, -0.9471842050552368, 0.9824816584587097], [-1.2872103452682495, 0.34463950991630554, 0.08680691570043564, -0.5663390755653381, 0.29542824625968933, 0.008232707157731056, -0.2534611225128174, 0.12341655790805817, -0.0832785964012146, -0.039088815450668335, 0.21530234813690186, 0.14268463850021362, -0.08025916665792465, -0.014774227514863014, -1.5019444227218628, 0.40636205673217773, 0.23263199627399445], [-0.9529898762702942, 0.14734138548374176, -1.2349952459335327, -1.5542668104171753, -0.44918909668922424, -1.6087090969085693, -0.32697954773902893, -0.043147895485162735, -0.3103177845478058, 0.07116057723760605, -0.2376355081796646, -0.22464025020599365, 0.21065331995487213, -0.1935027688741684, -1.126664161682129, 0.1549980342388153, -1.2443336248397827], [-0.03531026095151901, 0.10528669506311417, -1.2862619161605835, -0.16789987683296204, 0.09385909140110016, -0.6824827194213867, -0.31079810857772827, 0.010527576319873333, -0.3528277277946472, 0.023984044790267944, -0.09038427472114563, -0.8065826892852783, 0.0340101420879364, 0.14618223905563354, 0.00903291068971157, -0.05501192435622215, -1.1519252061843872], [-1.5626338720321655, -0.038278061896562576, 0.05733581632375717, 2.9902360439300537, -0.6290834546089172, -4.405378818511963, -0.23360063135623932, -0.012975185178220272, 0.1474618911743164, 0.0656198039650917, -0.5236562490463257, -0.24666346609592438, -0.02846505120396614, -0.06549210846424103, -1.5675426721572876, -0.12846603989601135, 0.02243852987885475], [0.6644182205200195, 3.587221145629883, 2.01908802986145, -1.0645732879638672, -0.42786434292793274, -1.5808262825012207, -1.4947340488433838, 0.3133409917354584, 0.6563563346862793, -0.029960837215185165, -0.31826186180114746, 0.14493998885154724, 0.13278214633464813, 0.06579988449811935, 0.7053454518318176, 4.855432987213135, 1.9737292528152466], [-1.41484534740448, 0.07517508417367935, 0.12408412992954254, -1.1448338031768799, -0.25538262724876404, 0.407207727432251, -0.35537442564964294, 0.25286421179771423, -0.3575206398963928, -0.1515309065580368, 0.16249947249889374, -0.07858660072088242, -0.3291257321834564, 0.16005712747573853, -1.335339069366455, -0.0734059289097786, 0.14043773710727692], [5.6079607009887695, -0.26691940426826477, -0.2511361241340637, 0.9888876676559448, -0.5874723792076111, -0.47534897923469543, -0.14593957364559174, 0.023863987997174263, -0.3785214424133301, 0.017281226813793182, -0.14752818644046783, -0.3411315977573395, -0.3325194716453552, -0.034031759947538376, 7.385724067687988, -0.23949556052684784, -0.2427794188261032], [0.5692551136016846, -1.0037505626678467, 1.1070294380187988, 0.9073437452316284, -1.1141657829284668, -0.2013748735189438, -0.34335803985595703, 0.10580118745565414, -0.07713440805673599, -0.03455280885100365, -0.2054588347673416, -0.018828164786100388, 0.15898151695728302, 0.04030743986368179, 0.5244958400726318, -0.9837818741798401, 1.027840256690979], [0.03277011588215828, 2.7333219051361084, -0.4872360825538635, -0.17352911829948425, -0.10758161544799805, -0.19923941791057587, 0.18406690657138824, -0.0869344100356102, -0.20388934016227722, -0.07727358490228653, -0.12177035212516785, -0.3073717951774597, -0.23524899780750275, -0.0664968267083168, 0.2139742523431778, 2.9190011024475098, -0.23769120872020721], [-0.29221612215042114, 5.75679349899292, -2.1795058250427246, 0.9747273325920105, -0.9869472980499268, 1.0745192766189575, 0.15341828763484955, -0.16767928004264832, -0.49351978302001953, 0.05213436111807823, 0.1328287273645401, -0.3090190291404724, 0.1945406198501587, -0.0336935929954052, -0.21069695055484772, 8.477386474609375, -2.333801031112671], [0.9714715480804443, 1.0555071830749512, -0.020966436713933945, -0.8987504243850708, 0.06588612496852875, -1.7264039516448975, -0.41990163922309875, -0.04042387753725052, -0.9113484025001526, 0.1566649228334427, -0.27038684487342834, -0.17208826541900635, -0.4449812173843384, -0.3427819609642029, 1.0669901371002197, 1.0770783424377441, -0.0018466428155079484]], "b": [5.38873573532328e-05, -0.19564425945281982, 0.015886807814240456, -0.174223393201828, 0.038248587399721146, -0.05356920510530472, 0.09725698083639145, 0.02606740966439247, -0.08887852728366852, -0.06727766990661621, 0.03630382567644119, -0.04619476944208145, 0.06667636334896088, 0.04939767345786095, 0.23865710198879242, -0.0028391533996909857, 0.10447516292333603, 0.048893410712480545, -0.0399218313395977, -0.2545699179172516, 0.27626651525497437, -0.15240423381328583, -0.022252142429351807, -0.00830465741455555, -0.2583314776420593, -0.04828210547566414, 0.08337437361478806, 0.07220210880041122, -0.09047644585371017, -0.18458399176597595, 0.016716331243515015, 0.15747226774692535, -0.02553364634513855, -0.08943381905555725, 0.1305990219116211, 0.06328857690095901, 0.06980238854885101, -0.011024072766304016, -0.1147211492061615, -0.09225133061408997, 0.01981412060558796, -0.039092808961868286, 0.017213530838489532, -0.04377647489309311, 0.018080152571201324, 0.10403219610452652, -0.0002222477487521246, 0.0678127259016037, 0.09448272734880447, -0.07716739177703857, -0.034473832696676254, -0.02908346988260746, -0.23378139734268188, 0.03064202331006527, 0.036644402891397476, -0.10978393256664276, -0.012847334146499634, 0.1443224549293518, 0.02584611251950264, 0.08540358394384384, 0.02822406217455864, 0.020340699702501297, 0.11245379596948624, -0.08155406266450882, -0.06839260458946228, 0.026470161974430084, 0.06878265738487244, -0.021166592836380005, -0.034397952258586884, -0.14636950194835663, 0.1067376434803009, 0.1867353469133377, -0.23104625940322876, -0.015627902001142502, -0.017582766711711884, 0.06233303248882294, -0.15328797698020935, 0.06464448571205139, 0.011771253310143948, -0.10049136728048325, -0.0455436185002327, 0.013187439180910587, 0.08190450072288513, 0.042924679815769196, -0.07490381598472595, -0.11240364611148834, -0.08237888664007187, -0.10597317665815353, 0.18375584483146667, -0.11686680465936661, 0.05996549129486084, -0.1989443302154541, 0.07434900850057602, 0.02044861577451229, 0.023495187982916832, -0.002690565073862672, 0.13479389250278473, 0.039532117545604706, 0.06488260626792908, 0.08561016619205475, -0.008567795157432556, -0.048033539205789566, 0.08018786460161209, 0.09308142215013504, -0.0015934217954054475, 0.000517307547852397, 0.2070789933204651, -0.054433424025774, -0.04877471923828125, 0.0354594849050045, 0.018146798014640808, -0.024591095745563507, 0.03975764662027359, 0.08422645926475525, 0.03874434530735016, -0.11133585125207901, 0.05091650038957596, -0.007936089299619198, 0.15333804488182068, -0.10979824513196945, -0.04514961689710617, -0.06847435981035233, 0.06955611705780029, 0.11910725384950638, 0.018372878432273865, 0.09434238076210022, 0.023024659603834152, -0.015868831425905228, 0.05909290537238121, 0.03099692612886429, 0.087877556681633, -0.09004437923431396, 0.0616951584815979, 0.1471327543258667, 0.00917084515094757, -0.04462536796927452, 0.08580457419157028, -0.18379278481006622, 0.04340766370296478, 0.09742981195449829, -0.07476051896810532, -0.04891589656472206, -0.06478685885667801, -0.12268573045730591, -0.04208991676568985, 0.1375059336423874, -0.0900304988026619, -0.04002730920910835, -0.08860260993242264, 0.06297961622476578, -0.07005363702774048, -0.12207991629838943, 0.038803115487098694, -0.04699193313717842, -0.13149335980415344, -0.00927530787885189, 0.019604908302426338, -0.08652620762586594, 0.02042487822473049, 0.023971812799572945, -0.04573692008852959, 0.05195869877934456, 0.03409570828080177, 0.02115473523736, 0.11246313899755478, -0.026591910049319267, -0.06361079961061478, 0.03376290947198868, 0.017739001661539078, -0.20706942677497864, 0.059189215302467346, 0.06309706717729568, -0.07483141124248505, -0.060628268867731094, -0.18480628728866577, 0.010257977992296219, -0.005425810348242521, -0.07799240201711655, -0.06381760537624359, 0.0323713943362236, -0.10004587471485138, 0.04804012179374695, 0.08817150443792343, -0.009869813919067383, -0.13571694493293762, 0.023997409269213676, -0.07659967988729477, -0.055994912981987, -0.005981883034110069, 0.01827574335038662, -0.023515278473496437, 0.26234105229377747, 0.055266618728637695, -0.2578833997249603, -0.001984323374927044, -0.02350611425936222, -0.08238651603460312, -0.09046678245067596, 0.059185486286878586, -0.05591413006186485, 0.014255508780479431, -0.019142016768455505, 0.06327905505895615, -0.030542192980647087, -0.08858446031808853, 0.13285619020462036, 0.09226413071155548, 0.031348977237939835, 0.029151637107133865, -0.04440445825457573, 0.09233635663986206, -0.05123438686132431, 0.10880883783102036, 0.07084474712610245, -0.002102384576573968, -0.032963771373033524, -0.03304238244891167, 0.19621510803699493, 0.22434385120868683, -0.1640891283750534, 0.012912309728562832, -0.046815596520900726, -0.07480362057685852, -0.09418221563100815, 0.03805027902126312, -0.0033179179299622774, -0.03452448919415474, 0.037068385630846024, 0.07327337563037872, -0.06157438084483147, -0.07515498995780945, 0.06765346229076385, 0.003094968618825078, 0.0011357534676790237, -0.1356581300497055, -0.09789998829364777, -0.12046447396278381, 0.0803147479891777, -0.03115113452076912, -0.057445116341114044, -0.08700449019670486, 0.013476287014782429, -0.015329871326684952, 0.07400988042354584, 0.022623160853981972, -0.013618411496281624, 0.059268493205308914, -0.13704648613929749, 0.025293633341789246, -0.017713649198412895, -0.052209410816431046, -0.03232443332672119, -0.05172053724527359, -0.11931812763214111, -0.04207848757505417, 0.09597735106945038], "activation": "tanh"}, {"w": [[-0.0035975954961031675, 0.009315532632172108, 0.19334374368190765, -0.055127620697021484, 0.12407270818948746, 0.006313375663012266, -0.06202240288257599, 0.1181880533695221, -0.005581599194556475, 0.14234109222888947, -0.08965888619422913, -0.020744508132338524, -0.048004236072301865, 0.08547526597976685, -0.001465825131163001, -0.07922223210334778, 0.006385344546288252, 0.1266142874956131, -0.09319260716438293, 0.014951761811971664, 0.07353001087903976, 0.08683754503726959, 0.07851678878068924, 0.0010220215190201998, 0.02747230790555477, -0.21066153049468994, 0.05873771384358406, -0.1802961379289627, -0.0195805374532938, -0.006266016513109207, 0.0760253295302391, -7.797066064085811e-05, -0.02321805991232395, 0.07594408839941025, 0.05999759957194328, -0.027425941079854965, 0.09381823241710663, -0.13044536113739014, -0.022422319278120995, -0.16223162412643433, -0.05232921987771988, 0.22828081250190735, -0.06434967368841171, 0.028721541166305542, -0.07844451814889908, 0.16500775516033173, 0.06740765273571014, -0.043301261961460114, 0.03965398296713829, 0.03803990036249161, -0.22774063050746918, 0.05222056806087494, 0.07486306875944138, 0.06692232936620712, -0.12795934081077576, 0.06624501943588257, 0.02832539938390255, 0.03948872908949852, 0.011024635285139084, 0.10627533495426178, 0.04038483649492264, 0.1029704213142395, -0.04247842729091644, 0.15021416544914246, 0.004308042116463184, 0.05042688921093941, 